639 50
ànnegkumme 0.08796179 -0.2526938 -0.19292267 0.24967007 -0.1903813 0.22970568 -0.17314193 -0.18961199 -0.13497321 0.3002815 0.23939031 -0.22356308 -0.11562696 -0.31330305 -0.23264457 0.2416242 -0.2839741 0.30166262 -0.1840967 -0.2299903 -0.2655329 -0.18664166 0.23946045 0.22288707 0.14053932 -0.18344063 0.2321281 0.1729666 0.3048653 -0.31371963 -0.20872101 0.30853686 -0.24997002 -0.20935224 -0.25218594 0.23607287 -0.2517893 -0.15633266 0.20007247 -0.10172946 0.2360064 0.102446616 -0.16628277 -0.13854411 0.1410669 0.11290648 -0.15973923 -0.2780995 -0.097902134 -0.2660221 
Müetersproch 0.31342563 -0.2133003 -0.14107858 0.062892556 -0.1900772 0.21669851 -0.22184582 -0.21383049 -0.29672667 -0.3932312 0.16676028 -0.2518742 -0.14757982 -0.2793401 -0.082112506 0.15589918 0.0064659924 0.22061376 -0.2302338 -0.14990088 -0.13826747 -0.1923642 0.114793606 -0.16602321 0.2665417 -0.1897655 0.26454887 0.25156948 0.23407604 -0.14376798 -0.22088867 0.22566836 0.23534027 -0.18383779 -0.23885596 -0.2420249 -0.10475186 -0.1360495 0.17661135 -0.12607512 0.2472118 0.27289304 -0.2562126 -0.14142866 0.352007 0.15400136 -0.2113208 -0.25105348 -0.15776613 -0.22935477 
ihre 0.15276721 -0.1650715 -0.20140383 0.09794183 -0.16740559 0.21486731 -0.08882773 -0.20182437 -0.30881023 -0.28990158 0.22830257 -0.06883434 -0.18082967 -0.2677814 -0.2976993 0.12559457 0.22656266 0.18636912 -0.32243678 -0.18897182 -0.27134696 -0.26274678 0.14673534 -0.21927023 0.2982416 -0.2832997 0.28215414 0.30551168 0.12321302 -0.046888974 -0.23208532 0.16813847 0.23424198 -0.31768715 -0.28228396 -0.10649628 -0.2626107 -0.27821493 0.19559228 -0.23414725 0.1889245 0.20039466 -0.226019 -0.06676254 0.22950459 0.29323742 -0.1981026 -0.34545192 -0.3770071 -0.17702734 
Marc 0.22557072 -0.11509984 -0.23487845 0.26780912 -0.18002056 0.18982077 -0.2625437 -0.3100925 -0.22724538 0.29623422 0.17270376 -0.23356907 -0.24856016 -0.21113214 -0.1699316 0.22535329 -0.29514408 0.26684943 -0.24293566 -0.2919827 -0.1823899 -0.19719256 0.0938402 0.20503142 0.20087986 -0.18220036 0.2141541 0.17852376 0.22099291 -0.21035413 -0.17547788 0.22048704 -0.1936361 -0.2738459 -0.1345656 0.25127083 -0.16489293 -0.14310127 0.22506948 -0.2991084 0.2215081 0.18402681 -0.29686543 -0.13784364 0.19443394 0.24070738 -0.2109246 -0.19434692 -0.19390547 -0.17855424 
La 0.30158383 -0.1972922 -0.24962047 0.25767067 -0.2255959 0.16874044 -0.16850762 -0.1950841 -0.33628917 -0.2238841 0.14888452 -0.190842 -0.20605446 -0.31352225 -0.28009674 0.2415186 0.20672084 0.091114715 -0.31210512 -0.050803997 -0.27285647 -0.1587586 -0.186508 0.0072803223 0.37132025 -0.34589523 0.34172344 0.22925721 0.14827865 -0.14011782 -0.0781505 0.107081205 0.25629747 -0.13734932 -0.26100272 -0.14692919 -0.04237155 -0.18991098 0.14714025 -0.24227956 0.19269674 0.21828188 -0.31471092 -0.15617229 0.19107407 0.18940106 -0.13882771 -0.35546687 -0.30895355 -0.2466876 
merckt 0.10863161 -0.19100931 -0.1667146 0.16964762 -0.2660874 0.2752615 -0.23324724 -0.22981778 -0.30902436 0.16069457 0.12715957 -0.29243314 -0.12903279 -0.29409552 -0.32430977 0.1935388 -0.1800598 0.3250673 -0.17271942 -0.27663302 -0.19609919 -0.104562275 0.25427896 0.21691625 0.12062226 -0.18402801 0.14205201 0.18432225 0.22117534 -0.27025896 -0.14617278 0.18228577 -0.13804415 -0.23027317 -0.17694697 0.18810132 -0.30664977 -0.20428924 0.1509946 -0.29329985 0.17027146 0.17049646 -0.15321565 -0.25223124 0.17738566 0.25129205 -0.29472756 -0.27702576 -0.20810695 -0.20908293 
Ochs 0.21827838 -0.09192124 -0.2202897 0.20877497 -0.15605778 0.14974041 -0.2005152 -0.23773882 -0.091624685 -0.31063265 0.13566229 -0.17642456 -0.2106917 -0.22355278 -0.020360695 0.19211999 -0.030358275 0.1722898 -0.25580445 -0.24458736 -0.2231064 -0.31415182 0.034506448 -0.041055106 0.26419058 -0.18264653 0.14343703 0.15921578 0.22198261 -0.12044531 -0.23844326 0.16077937 0.2269627 -0.29562113 -0.17300451 -0.09692119 -0.16649593 -0.24339733 0.21789843 -0.18650775 0.10139418 0.22437434 -0.28389034 -0.07921897 0.21840158 0.1776734 -0.18239051 -0.3010876 -0.33700243 -0.21593851 
fer 0.19861974 -0.122653924 -0.1712699 0.3050449 -0.2599543 0.20000601 -0.20140497 -0.14217629 -0.10790203 0.1982779 0.2748396 -0.18434353 -0.24841997 -0.22194287 -0.16091631 0.24547847 -0.27223152 0.20288059 -0.20473604 -0.15944833 -0.20430902 -0.15820457 0.21756591 0.21609811 0.20633036 -0.18079792 0.19545472 0.26336715 0.20033331 -0.2751078 -0.11597084 0.26642683 -0.25119868 -0.26777777 -0.123321705 0.256484 -0.20044227 -0.21472728 0.24373275 -0.1950897 0.3096167 0.16058172 -0.17985447 -0.21350299 0.14767341 0.16148286 -0.25518018 -0.23664531 -0.12216325 -0.20214485 
DNA-Blöiwolike-Verlàà 0.11623972 -0.19328584 -0.23235619 0.15184408 -0.1471219 0.1446723 -0.21017943 -0.21754237 -0.08960966 0.3347863 0.24309783 -0.2441915 -0.18349239 -0.28599182 -0.20142734 0.21651202 -0.2784699 0.29710078 -0.23300052 -0.17948128 -0.20133084 -0.12705626 0.2242808 0.2268728 0.33236077 -0.14453386 0.25658172 0.16268612 0.2245875 -0.23945822 -0.15731977 0.11021474 -0.23784117 -0.13878007 -0.22902574 0.21663529 -0.1740228 -0.2593337 0.22339201 -0.21762629 0.23656002 0.15092868 -0.118256316 -0.13359301 0.19320375 0.2888326 -0.25252473 -0.29981142 -0.23384817 -0.24335374 
Mol 0.14615546 -0.26105133 -0.15527123 0.27520347 -0.25343654 0.26628327 -0.18380588 -0.22300497 -0.2465934 0.26423362 0.24483512 -0.22862089 -0.17264794 -0.1599818 -0.21963 0.1874501 -0.25094712 0.27522102 -0.20888281 -0.06172324 -0.18319626 -0.18632053 0.2153138 0.27356833 0.32360345 -0.23241492 0.14872193 0.19823503 0.14992353 -0.22870809 -0.10040165 0.112524815 -0.29694444 -0.25910997 -0.21309899 0.1917782 -0.17498405 -0.31053454 0.2817444 -0.18380304 0.13577795 0.1558361 -0.22473702 -0.2290671 0.27234918 0.19523825 -0.2762311 -0.27192605 -0.2704891 -0.21663259 
30 0.1252607 -0.2981796 -0.2883454 0.26258764 -0.29415712 0.2845936 -0.16073154 -0.26959974 -0.15545237 0.29910493 0.14855896 -0.29515558 -0.20581545 -0.021144127 -0.22677091 0.14810674 -0.22645997 0.1961964 -0.12241577 -0.18922141 0.027124988 -0.19636695 0.17027898 0.26634252 0.18856291 -0.09460035 0.118384585 0.11316972 0.24673432 -0.2415242 -0.18117209 0.26812166 -0.34946427 -0.31435046 -0.084034264 0.21162006 -0.22208077 -0.33071467 0.11980358 -0.2888999 0.14162812 0.1409592 -0.20012209 -0.29648274 0.15926075 0.25766948 -0.1391375 0.045576222 -0.21135692 -0.3548091 
ufgewàchse 0.14841166 -0.09551559 -0.15664823 0.18870953 -0.1435085 0.14911377 -0.10336557 -0.1976942 -0.1148042 0.27177855 0.18640248 -0.14827769 -0.21064386 -0.16506396 -0.23661292 0.15792905 -0.14588895 0.11253026 -0.2075084 -0.25858527 -0.26703745 -0.2496893 0.16642262 0.22788319 0.18320625 -0.23412547 0.23027347 0.25215024 0.26190287 -0.21574278 -0.21839629 0.1443401 -0.2972937 -0.18854056 -0.3273504 0.21721643 -0.2168015 -0.20302893 0.20442195 -0.15250136 0.25537878 0.21357307 -0.19037177 -0.21332823 0.3299042 0.20745459 -0.29831618 -0.25614157 -0.17829865 -0.18904461 
Morje 0.21101436 -0.23671104 -0.29675052 0.07707037 -0.25795585 0.03299935 -0.26155114 -0.15332969 -0.33883786 -0.3271353 0.29561418 -0.17094536 -0.22973943 -0.16486937 0.16742256 0.2606017 0.09485172 0.2298993 -0.3629208 -0.14906232 -0.31296596 -0.13101307 -0.036361206 -0.12546337 0.24755068 -0.3029121 0.33946964 0.19951794 0.22938608 -0.20786588 -0.18109412 0.2600252 0.3087178 -0.317838 -0.1819387 -0.049067628 -0.073140584 -0.07676367 0.3274646 -0.2325854 0.19334988 0.28830418 -0.21398805 -0.20678681 0.30235767 0.09150715 -0.27998263 -0.38693717 -0.29511663 -0.3595597 
Zypern 0.17217204 -0.22593252 -0.32187912 0.27340907 -0.21936178 0.30834436 -0.24483772 -0.21885492 -0.14714266 0.33256885 0.18144968 -0.31193814 -0.20434673 0.28311712 -0.29358506 0.19547622 -0.23012108 0.3263324 0.25278628 -0.19240503 -0.11795342 -0.2163904 0.22668147 0.2722673 0.031674847 0.32839134 -0.041304357 0.1699694 0.20456545 -0.13936938 -0.19140172 0.21416011 -0.2798784 -0.34148294 -0.22691365 0.29819202 -0.20962308 -0.22461815 0.23905778 -0.12928446 -0.026666677 0.35670862 0.25433558 -0.3233541 -0.020920495 0.2730815 -0.20100255 -0.27142206 0.22617376 0.30994418 
August 0.18111922 -0.21079107 -0.22118351 0.19475201 -0.17275247 0.23783968 -0.27196676 -0.1577512 -0.27642593 0.203957 0.17561197 -0.32248676 -0.32281762 0.40829128 -0.33046797 0.18280685 -0.19553366 0.34431836 0.3761304 -0.21929027 -0.119870804 -0.23464863 0.2657057 0.17601168 0.01204776 0.24983828 -0.049226906 0.11805479 0.25578022 -0.1923231 -0.15041088 0.23607868 -0.39310372 -0.20944893 -0.2197377 0.31765676 -0.2564798 -0.0996714 0.17960054 -0.11262287 0.16698624 0.23738486 -0.013384435 -0.30057245 -0.024668373 0.26555333 -0.16476592 -0.1876552 0.096224345 0.4488635 
… 0.423461 -0.27397338 -0.26396045 0.2910139 -0.23564368 0.29302073 -0.40006164 -0.3164277 -0.25207418 0.36542296 0.2926749 -0.28622633 -0.30600592 0.35409713 -0.40269256 0.37730932 -0.29556167 0.3766832 0.4588634 -0.2913826 -0.1148521 -0.20370476 0.47239065 0.34228367 0.0969025 0.4405827 -0.119509965 -0.063993946 0.29298976 -0.3362889 -0.18778658 0.35809076 -0.3335768 -0.35850456 -0.42706415 0.4568182 -0.4359383 -0.21963781 0.31407633 -0.015854409 0.013017069 0.34936395 0.052607775 -0.29988843 0.07126366 0.3494049 -0.26322585 -0.04821273 0.14749369 0.24689114 
vezählt 0.20817426 -0.18865186 -0.19842862 0.17767943 -0.19310006 0.20880142 -0.27650705 -0.19941641 -0.13069431 0.22863887 0.23357016 -0.21998665 -0.11488909 -0.2327514 -0.10529481 0.18329395 -0.19211884 0.17217962 -0.22360383 -0.08477133 -0.23358792 -0.33636054 0.17983751 0.30615082 0.2740227 -0.31726655 0.12707162 0.12168783 0.07544001 -0.19913992 -0.27250907 0.15816586 -0.18151927 -0.18985516 -0.19991848 0.2438206 -0.25134316 -0.19648102 0.13992792 -0.22389323 0.26782867 0.27920786 -0.19876964 -0.15244372 0.1643223 0.24724518 -0.28968188 -0.18057281 -0.17596556 -0.25589982 
ànna 0.20539415 -0.25008145 -0.23366088 0.25379714 -0.13665685 0.19135666 -0.2444363 -0.23110522 -0.19294938 0.22889242 0.20066696 -0.24368785 -0.17875366 -0.18531314 -0.20150352 0.15174258 -0.29453555 0.28421578 -0.27509308 -0.20710504 -0.13533908 -0.13604476 0.23235129 0.3452392 0.23254396 -0.2047846 0.19437788 0.22346668 0.26355243 -0.276137 -0.18609461 0.18268168 -0.17621449 -0.24074617 -0.27917844 0.2773018 -0.19231161 -0.29956266 0.2513833 -0.2430819 0.19661513 0.1658586 -0.108140595 -0.14318347 0.28996035 0.12819591 -0.17109446 -0.12355607 -0.18003695 -0.26688352 
sin 0.1669913 -0.15776716 -0.18877414 0.13603559 -0.18397544 0.20175847 -0.2577487 -0.32977065 -0.2033177 0.15411909 0.25528952 -0.29854307 -0.17614393 -0.34490946 -0.13538857 0.3209435 -0.21760301 0.30572137 -0.34244645 -0.20261678 -0.26218292 -0.15830837 0.26048493 0.31085032 0.27500334 -0.31944942 0.28819287 0.25498682 0.26320204 -0.27891287 -0.37563595 0.26331204 -0.15777542 -0.24054985 -0.27038744 0.048762754 -0.23091912 -0.22768547 0.23901953 -0.27169943 0.2367646 0.25560153 -0.21452793 -0.17787795 0.34610334 0.28249627 -0.26653728 -0.3294554 -0.35243654 -0.24385582 
der 0.23630437 -0.29776898 -0.1834856 0.09356986 -0.2779281 0.2976981 -0.27226663 -0.21149977 -0.22030821 0.33973175 0.33324796 -0.07788806 -0.20914194 -0.29261068 -0.2876568 0.24710168 -0.3108921 0.16566272 -0.1867206 -0.2767756 -0.19728488 -0.17940974 0.16455773 0.26684272 0.2894527 -0.22500278 0.29310134 0.097524114 0.27964032 -0.21824469 -0.19630119 0.13342886 -0.1468241 -0.1832019 -0.20766328 0.26372233 -0.22830513 -0.22595423 0.28025797 -0.15759549 0.1366378 0.12675084 -0.12148646 -0.28060767 0.21551278 0.21693549 -0.22083399 -0.16994241 -0.24138124 -0.1102716 
’s 0.21514022 -0.32472774 -0.19036199 0.20627874 -0.18429556 0.2029246 -0.18832077 -0.16326489 -0.29984242 0.30570975 0.2083911 -0.15956211 -0.1886205 -0.09530711 -0.14324051 0.2709316 -0.34461218 0.1800964 -0.19859965 -0.18501872 -0.2764469 -0.19851676 0.12905318 0.13518137 0.24012722 -0.11646057 0.14303678 0.18686634 0.23225367 -0.16983509 -0.2414512 0.19958901 -0.2156164 -0.334313 -0.20944342 0.2965234 -0.20525804 -0.15070066 0.30578664 -0.20671125 0.15524532 0.22827019 -0.09928527 -0.19640963 0.14218171 0.20852739 -0.22393839 -0.16001569 -0.13005196 -0.21828738 
schwìmme 0.26290128 -0.1672576 -0.26515818 0.23083012 -0.21035676 0.18259296 -0.23057982 -0.10265234 -0.1927119 0.23707819 0.14655851 -0.16560884 -0.22505069 0.0055261315 -0.35152578 0.1848784 -0.34436426 0.16407321 -0.030893644 -0.21438548 -0.24917524 -0.22426943 0.29468498 0.34266552 0.16616364 0.0037459726 0.07160159 0.28459138 0.26252374 -0.21031266 -0.086111486 0.2894561 -0.26464018 -0.24702956 -0.20746063 0.23137851 -0.27174392 -0.08497104 0.21386047 -0.1402833 0.16233261 0.16779432 -0.04146706 -0.2500573 0.11961168 0.18586434 -0.2566173 -0.11746448 -0.13353829 -0.050551344 
Finck 0.082056366 -0.16125791 -0.09228358 0.08270671 -0.25173733 0.13780794 -0.17939667 -0.23941411 -0.23749486 -0.13357762 0.20054111 -0.2030478 -0.06678709 -0.245615 -0.16569561 0.14440912 0.06059819 0.15718165 -0.2808509 -0.21270177 -0.29545227 -0.18424183 0.09892429 0.00039680518 0.23041221 -0.3007048 0.2291038 0.20749234 0.2941818 -0.053208906 -0.26237887 0.20452799 0.3870384 -0.13802972 -0.15653731 -0.142458 -0.048322957 -0.17525052 0.30289847 -0.2823068 0.20731418 0.0563559 -0.18531156 -0.08180637 0.19735754 0.061210614 -0.24095502 -0.2645126 -0.25286734 -0.24737245 
às 0.096778534 -0.22967653 -0.12274121 0.1462852 -0.1911864 0.21290621 -0.0676606 -0.19192383 -0.24106847 -0.32868665 0.18437365 -0.13737707 -0.18497093 -0.3112555 -0.046891138 0.30232182 -0.0021228108 0.28311154 -0.20326062 -0.08183773 -0.34647688 -0.220693 0.15233852 0.051121138 0.26070055 -0.24008304 0.21791282 0.3417813 0.15257949 -0.09531462 -0.18013528 0.14312252 0.44322965 -0.22604834 -0.09106123 -0.33818054 -0.031407975 -0.092768796 0.23032607 -0.27767223 0.31797904 0.2485841 -0.29893276 -0.16785988 0.26477537 0.25403538 -0.16434908 -0.21628962 -0.20944658 -0.20213078 
muen 0.33476502 -0.2901212 -0.24365854 0.13023092 -0.2711865 0.19920644 -0.26498502 -0.20691496 -0.26160216 0.20524268 0.1731046 -0.14102778 -0.22512056 0.2767574 -0.334751 0.30093977 -0.3100091 0.2972167 0.41746393 -0.25296754 -0.22802411 -0.05577092 0.27921224 0.36211 -0.0093295155 0.23694643 -0.10762006 0.23067535 0.12951767 -0.22001068 -0.17945395 0.30907863 -0.32725748 -0.26443994 -0.22434846 0.2686928 -0.26584244 -0.11762755 0.23125343 -0.17807107 0.08397898 0.26511028 0.15708342 -0.22018652 -0.05797986 0.3047831 -0.3269153 -0.24109626 0.303812 0.29353848 
Bewusstsinn 0.09625099 -0.24069746 -0.21275769 0.12181654 -0.25667107 0.3034272 -0.13282254 -0.21913965 -0.11557697 0.36025137 0.14080277 -0.2065888 -0.18493223 -0.14944938 -0.13118292 0.13291907 -0.24039568 0.299856 -0.23590127 -0.15542412 -0.2531989 -0.25862446 0.26445848 0.28489557 0.23213789 -0.23750648 0.11300715 0.3103525 0.24014336 -0.24897002 -0.23719068 0.13752803 -0.23246187 -0.18387675 -0.1926825 0.21314825 -0.19171526 -0.18065731 0.28951678 -0.25525454 0.23946485 0.25823689 -0.2517473 -0.30275208 0.11222947 0.17669952 -0.17101383 -0.1796781 -0.19611469 -0.18108262 
gsöt 0.17798811 -0.1629953 -0.19840612 0.24580888 -0.15668882 0.1402718 -0.31552383 -0.19762169 -0.16924171 0.2331657 0.12144629 -0.28131077 -0.29371017 -0.23655537 -0.2526688 0.31660408 -0.22952846 0.23118347 -0.29315194 -0.076066576 -0.11035296 -0.17373316 0.24693611 0.14953949 0.14942461 -0.27844286 0.26836145 0.17999038 0.21995665 -0.19033346 -0.2305872 0.1989857 -0.30646995 -0.18360868 -0.29375684 0.19047363 -0.29636332 -0.16376835 0.16722165 -0.22607665 0.18841611 0.1783924 -0.1673359 -0.26311392 0.18988723 0.18065025 -0.1964587 -0.2696634 -0.18059415 -0.25853345 
Bàbbe 0.06582235 -0.14535819 -0.19471826 0.16854966 -0.14589518 0.16202298 -0.16533396 -0.2681887 -0.21077238 -0.22648157 0.27306566 -0.24830242 0.099119216 -0.36091372 -0.11549151 0.102809094 -0.018379921 0.30006263 -0.27014273 -0.16093947 -0.25944406 -0.19833557 0.047303945 -0.34954238 0.29465327 -0.33595675 0.37639523 0.34352028 0.22128837 0.23247337 -0.04064536 0.10009501 0.2066013 -0.052891396 -0.06502887 0.08932197 -0.21770953 -0.2323459 0.21931688 -0.27148482 0.0479781 0.21289134 -0.24614191 -0.31392732 0.32225868 0.14453997 -0.108581156 -0.28811586 -0.16296206 -0.17859401 
73 0.11182296276092529 -0.24858033657073975 -0.20322905480861664 0.32640665769577026 -0.20910897850990295 0.21629226207733154 -0.23284365236759186 -0.2461273968219757 -0.19605925679206848 0.12767937779426575 0.10312581062316895 -0.21943482756614685 -0.27090081572532654 -0.20023542642593384 -0.11482351273298264 0.21787728369235992 -0.13723301887512207 0.27938956022262573 -0.22815167903900146 -0.3117961883544922 -0.10309848189353943 -0.18785527348518372 0.1702616959810257 0.1834614872932434 0.20257459580898285 -0.11644094437360764 0.11085282266139984 0.13769233226776123 0.20912449061870575 -0.22856378555297852 -0.21450625360012054 0.199644073843956 -0.10843576490879059 -0.27394863963127136 -0.20599782466888428 0.24253910779953003 -0.1812354326248169 -0.1974504441022873 0.23544982075691223 -0.18478673696517944 0.21222533285617828 0.2621444761753082 -0.21601925790309906 -0.23118121922016144 0.21092969179153442 0.24238808453083038 -0.19929854571819305 -0.07057152688503265 -0.2627602219581604 -0.24059276282787323 
àm 0.17764875 -0.2802005 -0.21163693 0.26141772 -0.14054349 0.2978548 -0.29127824 -0.30563307 -0.16465205 0.32445198 0.2293807 -0.332554 -0.3285169 -0.312786 -0.23980168 0.2190591 -0.2733581 0.25434858 -0.2883261 -0.18058865 -0.23586535 -0.2406918 0.18813817 0.40745336 0.26137072 -0.1709089 0.23342678 0.26419958 0.25548348 -0.40237698 -0.31915405 0.39410976 -0.2476136 -0.2420041 -0.255629 0.15567994 -0.27096248 -0.150001 0.19175799 -0.25073376 0.2535868 0.27891192 -0.2540668 -0.21826231 0.25612223 0.29773405 -0.37185654 -0.24516848 -0.30138084 -0.18321724 
erklärt 0.20530206 -0.2650727 -0.03611342 0.24194534 -0.17133078 0.10314831 -0.10047498 -0.12255363 -0.19475456 -0.29137725 0.19581972 -0.21928634 -0.14100364 -0.29696882 -0.032371115 0.15449792 0.10065409 0.027431162 -0.39807823 -0.26818967 -0.15818085 -0.20944397 0.0455205 0.049295127 0.22526394 -0.26533514 0.3195293 0.27199128 0.10853476 -0.31592646 -0.3134812 0.19856216 0.32712552 -0.26319596 -0.20620692 -0.16991387 -0.25461334 -0.19231553 0.19560136 -0.35625738 0.28977123 0.15513527 -0.2961281 -0.13023591 0.29118848 0.16465218 -0.28142536 -0.2145056 -0.17060417 -0.35057 
d'r 0.27607697 -0.22824134 -0.21572585 0.29789034 -0.28629154 0.20192249 -0.25551218 -0.21861221 -0.14985861 0.38022417 0.31470743 -0.2522514 -0.3241591 0.19838583 -0.21360633 0.17028223 -0.3078201 0.17597397 0.19037028 -0.15212329 -0.22905529 -0.11282559 0.30817688 0.23187324 0.012735616 0.0024095797 0.04835708 0.119991824 0.15472738 -0.19517653 -0.16759409 0.31371137 -0.33782536 -0.23408951 -0.20193085 0.22103807 -0.30579197 -0.21264474 0.20230614 -0.060730964 0.20480329 0.21740413 0.016216207 -0.29614806 0.07267706 0.19196342 -0.29768896 -0.22627413 -0.010431847 0.10265026 
Ruehj 0.30440506 -0.21207298 -0.21161951 0.13636757 -0.27138013 0.17485486 -0.13568464 -0.27700022 -0.111293525 0.18791032 0.20607819 -0.12007285 -0.31150445 -0.16285326 -0.25612 0.18915372 -0.257314 0.27365935 -0.19620767 -0.13205957 -0.27542415 -0.17128822 0.1480724 0.26643798 0.2778426 -0.25701565 0.28733677 0.32436314 0.21830843 -0.21683508 -0.20798403 0.2239099 -0.17863318 -0.17735864 -0.115143925 0.22101143 -0.1370619 -0.17643729 0.28393766 -0.16005199 0.3118498 0.16635972 -0.2535934 -0.25053513 0.28826305 0.17407715 -0.19334118 -0.19367865 -0.25581288 -0.2778672 
Bilinguisme 0.21140951 -0.16819043 -0.20842232 0.16626157 -0.22845049 0.13418987 -0.20549919 -0.30115637 -0.1501456 0.28984642 0.15139404 -0.3102873 -0.24976744 -0.26282346 -0.2963323 0.2662002 -0.17353682 0.14755909 -0.30754855 -0.26724562 -0.28611434 -0.17812642 0.08234266 0.15641102 0.27042195 -0.20972916 0.17725582 0.15383062 0.23781566 -0.30821142 -0.14561191 0.2719039 -0.17457575 -0.20625961 -0.2717449 0.22561477 -0.1946866 -0.22241516 0.26406568 -0.23500971 0.22356828 0.2288099 -0.102160335 -0.094007485 0.18819481 0.13804337 -0.32121828 -0.116428904 -0.19688766 -0.09392601 
] 0.22309716 -0.23977776 -0.104249 0.10043924 -0.14808969 0.10777838 -0.21506771 -0.28806797 -0.23504746 0.22658971 0.2420845 -0.23594312 -0.22184737 -0.29963037 -0.2526941 0.13530251 -0.2520403 0.26111218 -0.2693292 -0.24701019 -0.3050804 -0.20089044 0.2395975 0.13071546 0.29881915 -0.1907699 0.23144667 0.17369646 0.2649763 -0.1576435 -0.17675239 0.19839458 -0.22477701 -0.15587851 -0.22103749 0.20293279 -0.23066168 -0.21784557 0.18285218 -0.22980615 0.21238422 0.27139926 -0.09805636 -0.16440552 0.20414892 0.13223591 -0.1088902 -0.25152215 -0.23886266 -0.2212203 
35 0.12116537988185883 -0.25481998920440674 -0.19802802801132202 0.329671710729599 -0.20899946987628937 0.22223041951656342 -0.23339435458183289 -0.24334125220775604 -0.2058921903371811 0.1259106546640396 0.11762934923171997 -0.21610139310359955 -0.2651456892490387 -0.2017223984003067 -0.11778450012207031 0.22323250770568848 -0.1376194953918457 0.27350232005119324 -0.2219032496213913 -0.3079434335231781 -0.12210945785045624 -0.18498723208904266 0.1799914836883545 0.17959311604499817 0.20183968544006348 -0.11877420544624329 0.11585139483213425 0.1461535543203354 0.2054760754108429 -0.22528193891048431 -0.21083520352840424 0.1988864243030548 -0.1147991269826889 -0.27218008041381836 -0.21217183768749237 0.23582810163497925 -0.18248966336250305 -0.1958855837583542 0.23645296692848206 -0.18010258674621582 0.2091086208820343 0.26832693815231323 -0.21484515070915222 -0.22827930748462677 0.2049201875925064 0.2423703819513321 -0.21193523705005646 -0.0894293263554573 -0.25233617424964905 -0.2291688174009323 
7 0.16245180368423462 -0.2321394681930542 -0.19013158977031708 0.36725950241088867 -0.2181224524974823 0.23699089884757996 -0.24579556286334991 -0.2337082475423813 -0.22559712827205658 0.13467594981193542 0.1657693088054657 -0.21545657515525818 -0.2752973437309265 -0.19245758652687073 -0.1750464141368866 0.24493101239204407 -0.13039512932300568 0.2779717445373535 -0.20994898676872253 -0.30892011523246765 -0.1703757643699646 -0.2220751792192459 0.20296424627304077 0.2025638073682785 0.21956367790699005 -0.0969584733247757 0.11526648700237274 0.16746610403060913 0.2174389809370041 -0.23828653991222382 -0.22356346249580383 0.19542407989501953 -0.14144252240657806 -0.278395414352417 -0.2600153684616089 0.23791277408599854 -0.21192817389965057 -0.20333102345466614 0.2570464313030243 -0.15343686938285828 0.21341684460639954 0.2827566862106323 -0.2036924958229065 -0.2524559199810028 0.2042480707168579 0.25426772236824036 -0.23722019791603088 -0.12286994606256485 -0.23651941120624542 -0.2153705507516861 
49 0.10870113968849182 -0.24362114071846008 -0.19108611345291138 0.32845017313957214 -0.20747897028923035 0.22220724821090698 -0.23672086000442505 -0.24755987524986267 -0.18923714756965637 0.13147196173667908 0.10708129405975342 -0.22569650411605835 -0.27252712845802307 -0.2023991495370865 -0.13094159960746765 0.21489690244197845 -0.1371421068906784 0.28395184874534607 -0.2255600541830063 -0.3116230070590973 -0.10501494258642197 -0.18987184762954712 0.17254619300365448 0.1926829069852829 0.20624206960201263 -0.10691619664430618 0.1154274046421051 0.13736048340797424 0.21417145431041718 -0.2311275601387024 -0.21580952405929565 0.19655968248844147 -0.11513710021972656 -0.27394211292266846 -0.2113327831029892 0.23940974473953247 -0.18937234580516815 -0.19532723724842072 0.23407211899757385 -0.17662008106708527 0.2161659151315689 0.26404261589050293 -0.21257928013801575 -0.22580605745315552 0.20675967633724213 0.24671025574207306 -0.20856571197509766 -0.07520338892936707 -0.2588287889957428 -0.24304494261741638 
ghulfa 0.23230569 -0.28792474 -0.15033184 0.21776758 -0.18938944 0.2213917 -0.20799385 -0.13757458 -0.15304026 -0.3136319 0.16519791 -0.10926122 -0.25856483 -0.24237159 -0.14983338 0.10154147 -0.21804059 0.1742448 -0.2764214 -0.2570248 -0.2588368 -0.16930974 -0.08574798 -0.010457645 0.29449093 -0.22414294 0.26125798 0.3133706 0.20953119 -0.17208391 -0.23592648 0.1553141 0.27496266 -0.17329733 -0.21933937 -0.22593369 -0.08932049 -0.28776613 0.21287175 -0.2419213 0.19867851 0.1463501 -0.21137051 -0.1913838 0.15934147 0.11705421 -0.18895575 -0.27818182 -0.26904747 -0.15900505 
d' 0.3242216 -0.25736645 -0.27985728 0.22355965 -0.2841098 0.2938614 -0.14306514 -0.16387072 -0.24634285 0.20782103 0.29369548 -0.3154844 -0.18344805 -0.22183986 -0.32778755 0.2736115 -0.22459744 0.27981254 -0.3292757 -0.26692557 -0.28226256 -0.17703605 0.25973037 0.23856042 0.26296076 -0.29193687 0.31932408 0.30788073 0.26265973 -0.22270572 -0.3375638 0.22608386 -0.26588792 -0.20490748 -0.12203233 0.2683709 -0.26798058 -0.15003137 0.23042509 -0.13190754 0.19269057 0.24742237 -0.2882518 -0.11288644 0.22836797 0.103057116 -0.21079826 -0.2977644 -0.24035361 -0.30709675 
zweisprochige 0.11770243 -0.15078859 -0.20089774 0.25397068 -0.32413277 0.2594082 -0.25952107 -0.23241924 -0.33792686 0.09443388 0.1723464 -0.19603533 -0.092704736 -0.25511944 -0.24847476 0.30156174 -0.19319537 0.13592473 -0.10425176 -0.18445505 -0.26217073 -0.1368824 0.2997369 0.20356652 0.22438228 -0.1058719 0.2510135 0.1817947 0.1307786 -0.21256492 -0.27553737 0.31287774 -0.21681939 -0.17774302 -0.2130892 0.24207494 -0.2409566 -0.1688591 0.13918848 -0.17053558 0.1360676 0.18670733 -0.20568222 -0.26236367 0.2662197 0.26670408 -0.19939354 -0.30903843 -0.18740083 -0.23422724 
62 0.09177802503108978 -0.24391551315784454 -0.2043682336807251 0.3083536624908447 -0.2107803225517273 0.20402595400810242 -0.22210393846035004 -0.2427804321050644 -0.1797763854265213 0.1289258897304535 0.07524507492780685 -0.21915237605571747 -0.2559362053871155 -0.19718262553215027 -0.08304232358932495 0.20676998794078827 -0.1361306607723236 0.28330135345458984 -0.24022841453552246 -0.31443384289741516 -0.0790332704782486 -0.17183834314346313 0.15559688210487366 0.17071525752544403 0.19861873984336853 -0.12841908633708954 0.10978056490421295 0.1292589157819748 0.20967453718185425 -0.2206086963415146 -0.21290870010852814 0.19942617416381836 -0.08955705165863037 -0.26459023356437683 -0.17627212405204773 0.23418083786964417 -0.17041806876659393 -0.19893670082092285 0.22480161488056183 -0.20141711831092834 0.21264256536960602 0.2519237995147705 -0.21798264980316162 -0.2138032168149948 0.21677207946777344 0.24626998603343964 -0.1859912872314453 -0.055783942341804504 -0.26176947355270386 -0.24393025040626526 
aléas 0.15104221 -0.28435406 -0.31896138 0.18989737 -0.3229999 0.16423833 -0.11007546 -0.27629483 -0.1212521 0.33647856 0.28977406 -0.21991418 -0.17165473 -0.11370954 -0.18324398 0.122288235 -0.30950424 0.19942892 -0.17439868 -0.28833112 -0.19963363 -0.21937469 0.3093847 0.3588376 0.18032677 -0.2840446 0.18008737 0.08975759 0.1613085 -0.21006402 -0.22606495 0.22489719 -0.24464329 -0.16188884 -0.085451245 0.1888459 -0.21749285 -0.23896477 0.21233164 -0.30912322 0.18899792 0.20590353 -0.2700287 -0.21785879 0.29510242 0.25072914 -0.2570619 -0.24523868 -0.08402071 -0.23512438 
/ 0.32190356 -0.30908805 -0.21468297 0.4215509 -0.3757314 0.34856433 -0.3664709 -0.29240352 -0.30934662 0.28544778 0.32013142 -0.25156048 -0.35190827 -0.21565618 -0.3082947 0.36279342 -0.28194818 0.3166732 -0.30051312 -0.30007908 -0.24606377 -0.26974198 0.3419141 0.12305554 0.33103675 -0.34412286 0.33307874 0.37873453 0.2809155 -0.25910246 -0.28313455 0.2961489 -0.31416288 -0.2685445 -0.3226743 0.2665521 -0.35800463 -0.27446428 0.40567318 -0.34645957 0.35652152 0.27451077 -0.25138828 -0.24261165 0.16693853 0.34878844 -0.24655642 -0.3078658 -0.19439058 -0.32622445 
lo 0.19542387 -0.26448902 -0.20008668 0.24274717 -0.2611207 0.112386055 -0.15884754 -0.10730287 -0.19343 0.22956559 0.18871805 -0.27216673 -0.24635042 -0.24453537 -0.22679171 0.27762982 -0.19255038 0.098767355 -0.16141027 -0.30456868 -0.22781238 -0.2847922 0.2573214 0.29069468 0.25521162 -0.21181448 0.22588229 0.21821925 0.19511919 -0.22041157 -0.23169655 0.3015283 -0.2279479 -0.2323456 -0.22501387 0.25863218 -0.26637393 -0.24165544 0.28825882 -0.17788036 0.25200796 0.09424389 -0.21103254 -0.20486605 0.23301858 0.24865389 -0.196287 -0.21050222 -0.17880926 -0.2998749 
41 0.08974547684192657 -0.24407625198364258 -0.20212090015411377 0.3151432275772095 -0.2039184421300888 0.214866042137146 -0.23503254354000092 -0.25081342458724976 -0.17915800213813782 0.13389921188354492 0.07528568804264069 -0.23001617193222046 -0.26826658844947815 -0.2000930905342102 -0.09562132507562637 0.2051360160112381 -0.13932836055755615 0.2855902910232544 -0.23407286405563354 -0.31477636098861694 -0.07660511136054993 -0.17479155957698822 0.15660534799098969 0.18362820148468018 0.2024165540933609 -0.11587623506784439 0.11108433455228806 0.12274707108736038 0.21184635162353516 -0.22436723113059998 -0.2134253829717636 0.1988917738199234 -0.09553086757659912 -0.2687978744506836 -0.1860523223876953 0.23907174170017242 -0.17756685614585876 -0.19325508177280426 0.22818541526794434 -0.19422544538974762 0.21642807126045227 0.25428783893585205 -0.21795228123664856 -0.21911673247814178 0.215227410197258 0.24302445352077484 -0.19406436383724213 -0.04800565540790558 -0.27045100927352905 -0.2551795542240143 
d’r 0.23216023 -0.14945126 -0.101982094 0.13816404 -0.25487274 0.077990785 -0.08462305 -0.23533222 -0.2544862 0.043229166 0.2473807 -0.045293838 0.06785728 -0.37433827 -0.072168574 0.328815 -0.21083392 0.22058724 -0.27345955 -0.20186308 -0.107910685 -0.19274291 0.05758526 -0.28084037 0.3361317 -0.17069063 0.32919163 0.2891523 0.29578447 0.09598792 -0.26596403 0.115988724 0.35197383 -0.2162137 -0.15621011 -0.06104867 -0.014675625 -0.20096204 0.11222899 -0.18574317 0.12785028 -0.004857621 -0.14557713 -0.10578308 0.15674676 0.16619553 -0.16539805 -0.12923263 -0.18785703 -0.36971718 
O 0.25286275 -0.12888806 -0.23868468 0.21538942 -0.19574274 0.18174484 -0.19067107 -0.22063035 -0.26084337 0.2879169 0.16446683 -0.1246138 -0.23166263 -0.19343196 -0.30019057 0.1445783 -0.19688508 0.16126853 -0.23870416 -0.15660886 -0.20629494 -0.18222418 0.22666146 0.22456844 0.23137163 -0.17640626 0.22457775 0.10241213 0.23119763 -0.2689662 -0.1291543 0.27089465 -0.27590212 -0.13858666 -0.16057786 0.2599332 -0.29346055 -0.232223 0.09820572 -0.18369879 0.14189062 0.21685308 -0.16554329 -0.21678002 0.21462737 0.23868287 -0.16772299 -0.20068529 -0.26037496 -0.2449258 
o 0.21681704 -0.12394298 -0.26318565 0.36974522 -0.23190211 0.20682983 -0.32057917 -0.36492586 -0.27912715 0.30476913 0.23599553 -0.29891142 -0.26186368 0.17821556 -0.37736452 0.34731603 -0.36427385 0.26614946 0.22545625 -0.24618913 -0.13861088 -0.298717 0.39067703 0.2130481 0.06310606 0.026964461 0.0694303 0.18972635 0.2933445 -0.3115713 -0.06534444 0.35820407 -0.42216155 -0.2921079 -0.16810362 0.30016214 -0.28415653 -0.25223416 0.21640214 -0.2201835 0.16346002 0.2428378 0.065294266 -0.2821408 -0.050605547 0.16744998 -0.19984247 -0.19930725 0.034248684 0.03423068 
erwähna 0.20218697 -0.15487416 -0.18388318 0.17896304 -0.31238398 0.17758143 -0.14598352 -0.2863035 -0.32652587 0.23040783 0.30570388 -0.19516042 -0.28118232 0.2788413 -0.3455479 0.17676735 -0.29272258 0.23495142 0.35839725 -0.24003914 -0.21311195 -0.13257553 0.28680953 0.3091449 0.09406098 0.37308845 -0.01869292 0.13834563 0.31326625 -0.27318496 -0.10282835 0.25591624 -0.21272448 -0.14339466 -0.26004928 0.31760886 -0.35019472 -0.22833419 0.25541028 -0.1192217 0.20811562 0.28743717 0.24091429 -0.27452564 -0.0455899 0.16081142 -0.21277733 -0.16081469 0.38359156 0.32740667 
21 0.03955581784248352 -0.2496597170829773 -0.21648751199245453 0.27922195196151733 -0.1964641809463501 0.18961061537265778 -0.21719489991664886 -0.25831449031829834 -0.13882899284362793 0.1259344071149826 0.018311336636543274 -0.22687876224517822 -0.2546140253543854 -0.2048591673374176 -0.04401262104511261 0.1724061816930771 -0.13685345649719238 0.28914332389831543 -0.25156906247138977 -0.3083801865577698 -0.013307079672813416 -0.14922215044498444 0.11984986066818237 0.1633722335100174 0.1888265758752823 -0.13969528675079346 0.1078440323472023 0.09456832706928253 0.19514447450637817 -0.21409285068511963 -0.21046100556850433 0.20870983600616455 -0.06899552792310715 -0.26883557438850403 -0.13993585109710693 0.2405313104391098 -0.1472715139389038 -0.1903039515018463 0.2115357220172882 -0.218860924243927 0.21542231738567352 0.2309177815914154 -0.22528810799121857 -0.19510987401008606 0.21398183703422546 0.23861125111579895 -0.16066892445087433 0.0010084658861160278 -0.2956804931163788 -0.27289801836013794 
Brüeder 0.23505217 -0.21501862 -0.17348506 0.22513576 -0.13619389 0.2289633 -0.29570004 -0.19267075 -0.1935598 0.27555487 0.3156852 -0.18760271 -0.1606995 -0.21931535 -0.2770085 0.23615882 -0.20733356 0.23221967 -0.31536347 -0.10449773 -0.25585788 -0.21547036 0.15896317 0.2547077 0.249055 -0.3276255 0.2859009 0.25414366 0.23421204 -0.26714054 -0.118122175 0.2212891 -0.20382157 -0.19883327 -0.23175964 0.16292754 -0.16811043 -0.16440003 0.2873117 -0.091863886 0.33946368 0.19728489 -0.14094423 -0.16425347 0.1607413 0.2797036 -0.2956716 -0.121346794 -0.1203177 -0.14494741 
öi 0.3125058 -0.33004588 -0.15727443 0.1384259 -0.20763446 0.1756904 -0.10279923 -0.21065018 -0.11930832 0.2810711 0.2971035 -0.30022672 -0.1528804 -0.25289735 -0.17519425 0.19725217 -0.15430965 0.24686983 -0.24204801 -0.2480331 -0.30595833 -0.2692623 0.16112454 0.27417403 0.3415983 -0.20929718 0.19790234 0.08917424 0.1966775 -0.15630454 -0.20897143 0.3422688 -0.19473283 -0.18678829 -0.21200213 0.15756738 -0.13650332 -0.23051478 0.2386174 -0.26616123 0.17138158 0.13667527 -0.20014837 -0.3059973 0.28558818 0.18673244 -0.120903544 -0.19142585 -0.1774839 -0.3058199 
Mertz 0.20992821 -0.28473538 -0.11864713 0.15237854 -0.1614042 0.15010013 -0.2875581 -0.22011808 -0.30336314 -0.42083234 0.110484935 -0.06738024 -0.19907936 -0.33435577 -0.024460413 0.32056016 0.058930423 0.18559405 -0.24520883 -0.28473076 -0.22245374 -0.2004626 0.13117252 -0.018361341 0.20678699 -0.33005834 0.31360057 0.13051206 0.16465186 0.011397847 -0.12556718 0.1410488 0.14430805 -0.14822972 -0.19723147 -0.17407238 -0.09406528 -0.31357354 0.25604376 -0.34485385 0.24359033 0.061064158 -0.29814845 -0.19273646 0.23189498 0.10722556 -0.2929458 -0.19241607 -0.18470491 -0.26584288 
Vorbild 0.15444358 -0.17379202 -0.13904205 0.16726787 -0.17238198 0.27933496 -0.19686015 -0.20956138 -0.31634712 0.27482548 0.26933002 -0.31243923 -0.1555027 -0.15280679 -0.10819 0.2747533 -0.15315703 0.19694643 -0.22000095 -0.294603 -0.22701085 -0.22656237 0.25884667 0.27379274 0.28834897 -0.14714475 0.10791284 0.21254489 0.16576093 -0.18539584 -0.16060644 0.23802432 -0.24337132 -0.24995011 -0.18155587 0.12651742 -0.11370863 -0.21292618 0.3060289 -0.18892957 0.19290587 0.24226418 -0.1305538 -0.1582417 0.13578987 0.17505886 -0.09737505 -0.27115145 -0.21783304 -0.17895463 
Fescht 0.24798608 -0.13898647 -0.2554506 0.18440466 -0.19264892 0.205118 -0.29591084 -0.20453717 -0.13728626 0.2718792 0.32364994 -0.28075475 -0.21939977 -0.2179554 -0.24551405 0.20452583 -0.2138665 0.25405714 -0.15803406 -0.17492731 -0.1815048 -0.2533708 0.23155951 0.22312438 0.31822318 -0.12538046 0.18632853 0.22720948 0.24044654 -0.17175366 -0.22141881 0.30161855 -0.24560036 -0.20093116 -0.20842868 0.20997109 -0.20805708 -0.2435571 0.23569284 -0.1918536 0.15269977 0.24913463 -0.15276422 -0.2508451 0.2180205 0.18517043 -0.23602025 -0.31968144 -0.169989 -0.23087536 
lonn 0.1521339 -0.21344651 -0.16222532 0.30080208 -0.06656139 0.2464341 -0.19702034 -0.06437976 -0.18364823 -0.33751714 0.19780318 -0.18516794 -0.14240581 -0.34784356 -0.15838 0.17760654 -0.105638616 0.2229064 -0.2747986 -0.23442736 -0.17424747 -0.21150146 0.17373146 0.11096794 0.24023029 -0.34533697 0.33780718 0.14914419 0.23450369 -0.19081585 -0.2921538 0.2581332 0.26905096 -0.1763104 -0.09149409 -0.3571969 -0.020698205 -0.16544595 0.10091017 -0.26045105 0.17973758 0.11299478 -0.19329444 -0.14046942 0.2598002 0.3106313 -0.1145997 -0.21469934 -0.19903196 -0.26690868 
des 0.13917008 -0.330286 -0.07289778 0.18516473 -0.15137543 0.23631197 -0.24705851 -0.19012836 -0.27181697 0.025008466 0.25561577 -0.09169097 -0.20593283 -0.31356654 -0.28553236 0.18826887 -0.14247218 0.28248802 -0.28846708 -0.19906895 -0.22488981 -0.23328999 0.21510462 0.084661625 0.33885655 -0.33426848 0.24014701 0.32796875 0.20027684 -0.14757183 -0.20100571 0.23260805 -0.1526076 -0.19150008 -0.1842355 0.035047162 -0.26315376 -0.20933308 0.20385411 -0.25893697 0.2607563 0.12187902 -0.24392939 -0.22611067 0.33763176 0.25228184 -0.3233386 -0.35817954 -0.4312956 -0.31667042 
STRUSS 0.078664355 -0.14330177 -0.0785342 0.18683282 -0.26234844 0.21419668 -0.29588926 -0.32084855 -0.26125032 0.25796095 0.22076564 -0.18322113 -0.19319361 -0.21965452 -0.16265582 0.1855232 -0.21355575 0.16885649 -0.24141401 -0.23096627 -0.11129588 -0.21010156 0.20304416 0.34392494 0.29487675 -0.13609342 0.11180948 0.18528596 0.16923475 -0.14125161 -0.18192181 0.19468866 -0.19338569 -0.14980468 -0.15153277 0.21491754 -0.19359812 -0.30671993 0.18449476 -0.28809577 0.27404574 0.2160557 -0.20924033 -0.21145587 0.20908915 0.21210921 -0.2138481 -0.22558154 -0.21240567 -0.31343308 
DMC 0.2966073 -0.33920515 -0.024068449 0.30546936 -0.31455874 0.18216914 -0.28356862 -0.14417727 -0.2168048 -0.18634988 0.22477551 -0.12200501 -0.13770625 -0.40024477 -0.03300254 0.26858878 0.01660055 0.15122044 -0.28178737 -0.24270774 -0.23560645 -0.19247119 0.04237424 -0.04091973 0.2874562 -0.30265006 0.25351 0.13749766 0.15600732 -0.029469302 -0.118735045 0.15645996 0.2849244 -0.21172936 -0.2172944 -0.3698983 -0.018325837 -0.13701268 0.2580418 -0.1765894 0.20660423 0.2893935 -0.2365176 -0.14370374 0.29453212 0.25158352 -0.21634953 -0.15987524 -0.24569072 -0.31277895 
Bìlder 0.15934642 -0.18773142 -0.17396851 0.12473682 -0.25501388 0.22849044 -0.16118191 -0.2599919 -0.1353285 -0.3595974 0.19453399 -0.29721788 -0.07385394 -0.24501607 -0.19816908 0.15057018 0.097352505 0.14637072 -0.3667526 -0.25032142 -0.21258448 -0.16524164 0.15446994 -0.09142261 0.28968537 -0.1726222 0.16482995 0.14272 0.13762861 0.0571284 -0.19122976 0.26067054 0.28967765 -0.2191309 -0.15538397 -0.16775098 -0.14623344 -0.21581516 0.10373367 -0.3346001 0.26021016 0.1257174 -0.31088802 -0.21521488 0.18284282 0.31654006 -0.23760718 -0.3416842 -0.22308965 -0.32339936 
Dichter 0.07487739 -0.26071075 -0.24514695 0.21909228 -0.27146497 0.06422367 -0.18373041 -0.19617097 -0.18001248 -0.25197664 0.13146505 -0.15541753 -0.11570158 -0.33196092 0.1350881 0.2550861 0.02293249 0.24429229 -0.37721178 -0.13520311 -0.31073296 -0.2867898 -0.024084972 -0.12429746 0.2134289 -0.25565898 0.19314885 0.18391603 0.15905951 -0.15925765 -0.16330235 0.23222513 0.15928619 -0.23388599 -0.17228706 -0.2292444 -0.14711459 -0.24360606 0.14779194 -0.2244937 0.25619695 0.1903293 -0.29284662 -0.16054305 0.28218642 0.20340246 -0.16810082 -0.34032285 -0.19085482 -0.38980997 
Einheit 0.310743 -0.10109372 -0.15500788 0.13708706 -0.21850015 0.1447647 -0.21099468 -0.3369089 -0.15154113 0.2970774 0.14316998 -0.288713 -0.20450905 0.25952628 -0.2594318 0.25404975 -0.25291866 0.20570295 0.38000077 -0.30914596 -0.17711912 -0.12075976 0.2978108 0.41643375 0.2132337 0.42948514 -0.0065344516 0.1830699 0.08911524 -0.16880482 -0.24753651 0.29105458 -0.29038867 -0.12789863 -0.22475454 0.2905654 -0.24073403 -0.1697575 0.21555136 -0.19055039 0.07699284 0.24827984 0.05524355 -0.24643609 -0.17096785 0.26801863 -0.13015729 -0.11861691 0.24734169 0.27382302 
Üsstellung 0.28622273 -0.12558174 -0.18519549 0.0037898251 -0.17435344 0.04614277 -0.22081849 -0.27896768 -0.2613944 -0.28915152 0.23883009 -0.026537027 -0.021278733 -0.14351554 -0.1145629 0.12678774 -0.23083618 0.3193852 -0.21864238 -0.1156896 -0.16975324 -0.2835244 0.107156016 0.045351777 0.24685398 -0.28944096 0.31745 0.14292936 0.29822487 -0.120062314 -0.1638306 0.17346537 0.34664014 -0.2331409 -0.20955423 -0.19988841 -0.13389994 -0.32339236 0.21314299 -0.31849626 0.32114136 0.13338493 -0.2966759 -0.19778493 0.22489882 0.20238236 -0.19231082 -0.16522017 -0.284114 -0.16162138 
Frànzeesch 0.2788142 -0.116244026 -0.12067427 0.10134484 -0.048900623 0.058032334 -0.23869532 -0.16147412 -0.20014259 -0.2308862 0.22544998 -0.17346197 -0.05131375 -0.3538837 -0.17131212 0.2092702 0.24998862 0.32771128 -0.25271708 -0.11081697 -0.29500803 -0.19354334 0.15597953 -0.10323088 0.26234996 -0.26415327 0.2706786 0.23362945 0.28406549 -0.3056689 -0.21209621 0.2513092 0.42735985 -0.106589824 -0.2118221 0.00488395 -0.26111177 -0.1536706 0.2215229 -0.20238344 0.25335482 0.14095528 -0.34826928 -0.099894024 0.19961026 0.18786107 -0.27918553 -0.27140668 -0.27747658 -0.2218164 
flinke 0.14990935 -0.17042474 -0.24081409 0.29108253 -0.20327249 0.22983424 -0.2021432 -0.1283838 -0.14338967 0.24190918 0.2966334 -0.16717614 -0.24425402 -0.29550967 -0.133614 0.32423374 -0.2673122 0.2081547 -0.18133679 -0.18341528 -0.23373073 -0.22361659 0.29620716 0.117614485 0.29024664 -0.24312451 0.2535783 0.09377091 0.14841197 -0.18170726 -0.16636427 0.137419 -0.31931117 -0.25320032 -0.20259185 0.28343338 -0.20953126 -0.14773747 0.2617691 -0.16782574 0.25034145 0.106487095 -0.17257717 -0.14497821 0.13290338 0.13537239 -0.16765817 -0.32695198 -0.26083842 -0.26890457 
friehjere 0.23595478 -0.2399882 -0.18987113 0.1293444 -0.15919842 0.19799799 -0.1898951 -0.26080886 -0.1943054 0.11176497 0.29154667 -0.107606746 -0.2073616 -0.21124908 -0.3059866 0.15098274 -0.1853174 0.32131532 -0.28983852 -0.107151955 -0.23382744 -0.2751282 0.25595602 0.16050431 0.34256887 -0.20282218 0.31930298 0.15680416 0.17439556 -0.18017575 -0.21244785 0.22008428 -0.28060707 -0.3474746 -0.3029631 0.27073666 -0.20946822 -0.24911875 0.19677873 -0.2358857 0.2652801 0.20460989 -0.2209173 -0.120576404 0.22738364 0.13521166 -0.24017587 -0.2782638 -0.12977375 -0.3131462 
gelàngt 0.1537598 -0.06461933 -0.21451685 0.118992805 -0.24494076 0.3098183 -0.1723749 -0.23427702 -0.21176668 -0.04324625 0.16965587 -0.1369298 -0.20142959 -0.23296173 0.052786846 0.33311296 0.20184869 0.29132164 -0.23146603 -0.07511237 -0.18890175 -0.19095941 -0.14639547 0.036314122 0.2623228 -0.30618674 0.302796 0.24833319 0.15949106 0.06499497 -0.2624978 0.30018538 0.31173202 -0.2102209 -0.1811317 -0.012852811 -0.10205571 -0.26809862 0.1723745 -0.24524365 0.2620462 0.11200505 -0.24578542 -0.2568462 0.19852887 0.2028471 -0.1688212 -0.3540518 -0.28930297 -0.27968955 
53 0.12373806536197662 -0.2569524347782135 -0.19860249757766724 0.33074188232421875 -0.21091867983341217 0.22207434475421906 -0.23731285333633423 -0.24497315287590027 -0.20889098942279816 0.12906387448310852 0.11537352949380875 -0.22189725935459137 -0.2683849632740021 -0.20045515894889832 -0.12022566050291061 0.22419585287570953 -0.1367921531200409 0.2759939432144165 -0.22058048844337463 -0.31073591113090515 -0.1223091259598732 -0.18471786379814148 0.1839268058538437 0.18394437432289124 0.20160876214504242 -0.11501066386699677 0.1146874725818634 0.14576993882656097 0.20771202445030212 -0.23025114834308624 -0.21198612451553345 0.19839909672737122 -0.11200352758169174 -0.2745698392391205 -0.21213506162166595 0.24040736258029938 -0.1843879520893097 -0.19564664363861084 0.2374107539653778 -0.17897440493106842 0.20985309779644012 0.26764896512031555 -0.21658577024936676 -0.23489242792129517 0.20850396156311035 0.24249927699565887 -0.20788678526878357 -0.08683602511882782 -0.25556662678718567 -0.2335737943649292 
Bilder 0.15699668 -0.20707844 -0.16138221 0.115225494 -0.27008832 0.20936947 -0.18339439 -0.21872258 -0.1302171 0.16300085 0.21831444 -0.27947032 -0.3000623 -0.1602928 -0.3021476 0.23873742 -0.217229 0.21019688 -0.28046644 -0.23010074 -0.23809744 -0.18611227 0.15519665 0.34187156 0.159859 -0.19466195 0.21518843 0.11956195 0.19994503 -0.15329441 -0.20718601 0.2011379 -0.21671548 -0.20558931 -0.1665258 0.29458794 -0.1942006 -0.2894377 0.27728054 -0.24890547 0.1717397 0.22175862 -0.096979775 -0.13604309 0.3115826 0.29404005 -0.18228875 -0.15820758 -0.12768033 -0.34071895 
àwwer 0.2548547 -0.25126585 -0.28823262 0.14891246 -0.2470144 0.23380733 -0.18865402 -0.31066337 -0.2335577 0.3354337 0.2487422 -0.21374784 -0.20228851 -0.1109566 -0.1946587 0.17734477 -0.28713962 0.18653539 -0.24254201 -0.15584117 -0.2222662 -0.21723612 0.17434458 0.2948874 0.08823659 -0.18994638 0.21729173 0.28114983 0.13761118 -0.15628703 -0.109272026 0.2077049 -0.33080283 -0.2161101 -0.11628329 0.22293128 -0.20153375 -0.18546285 0.22747308 -0.14520141 0.16712731 0.21418932 -0.23158936 -0.1264622 0.18356033 0.117387265 -0.2100369 -0.28895137 -0.23741959 -0.15664412 
Wamm’r 0.28647614 -0.29348353 -0.23009178 0.26312262 -0.2253261 0.2560893 -0.22461832 -0.16329262 -0.29889023 0.23692572 0.19165757 -0.19791831 -0.16210835 -0.2678077 -0.18619466 0.19960657 -0.2311913 0.18128392 -0.20900989 -0.29882073 -0.3054191 -0.28026125 0.24892065 0.21909189 0.26621926 -0.1770854 0.1601572 0.26623595 0.18523306 -0.20057984 -0.16468765 0.17699213 -0.32717234 -0.22229193 -0.17611866 0.21051152 -0.19208317 -0.18712486 0.21240057 -0.19583003 0.14862998 0.10905109 -0.2051939 -0.21763188 0.19379874 0.27808306 -0.1749778 -0.29367268 -0.31646225 -0.20599884 
aane 0.17896791 -0.21804635 -0.14165893 0.18037573 -0.2556808 0.2573535 -0.23178737 -0.25838685 -0.34360126 -0.33891785 0.37579295 -0.14341435 -0.25934613 -0.23633353 -0.10264232 0.10118155 -0.025212308 0.23300004 -0.2898603 -0.17513591 -0.30583465 -0.24277559 -0.01563936 -0.12940949 0.34256604 -0.29054353 0.24528167 0.18352139 0.13903081 -0.13034417 -0.13646153 0.2178123 0.38655484 -0.23004991 -0.12514293 -0.30542532 -0.20923373 -0.3148717 0.18911916 -0.3125417 0.1442968 0.19128536 -0.14613456 -0.03235204 0.2822044 0.19662696 -0.2556991 -0.32824242 -0.28384468 -0.22540094 
$$UNK$$ 0.017837895 -0.026538985 -0.02335145 0.047792677 -0.02769456 0.03146293 -0.041615333 0.012747162 0.034301296 -0.04420974 -0.051629666 0.014670984 0.026853358 -0.042398922 0.034643505 0.10590102 -0.00028345129 -0.012550407 0.021130994 -0.08993221 0.015608479 0.00787927 0.00013128003 0.120709635 -0.038145844 0.027741926 -0.056651376 -0.008740379 0.102026656 -0.00021496524 0.009393743 0.011951819 0.016109884 -0.0033486723 0.050134644 -0.014937607 0.0401902 -0.116120376 -0.047352 -0.044031315 0.019966844 0.018024607 0.11823177 0.023127053 0.05873737 0.03387323 -0.09185645 -0.056924246 0.046199504 0.12888426 
gstoosse 0.15499152 -0.1857764 -0.09873613 0.22786307 -0.32715663 0.17127843 -0.28299174 -0.22642867 -0.25950578 -0.2965933 0.19706167 -0.1720661 -0.18889388 -0.29618925 -0.08962275 0.17114997 0.041253336 0.1361875 -0.34052646 -0.1771721 -0.22928357 -0.24450925 0.120222986 -0.15059194 0.26300037 -0.3181164 0.34131524 0.35852924 0.18669221 -0.09596906 -0.21292044 0.27746552 0.2791722 -0.03794779 -0.27876046 -0.3069523 -0.14649853 -0.08615931 0.21556796 -0.23911609 0.13236825 0.1298931 -0.340449 -0.20840915 0.24228309 0.25343588 -0.25017145 -0.17923175 -0.15954001 -0.22714816 
59 0.1258275955915451 -0.2496899515390396 -0.19255927205085754 0.3341887593269348 -0.21129748225212097 0.22423426806926727 -0.23812538385391235 -0.24328818917274475 -0.20323248207569122 0.12954090535640717 0.12300645560026169 -0.2200835645198822 -0.26780223846435547 -0.19837979972362518 -0.13739407062530518 0.21976014971733093 -0.1329231858253479 0.27911627292633057 -0.21881698071956635 -0.3092758059501648 -0.1255795955657959 -0.19165702164173126 0.1829390525817871 0.19099918007850647 0.2044426053762436 -0.11005312204360962 0.11746673285961151 0.14841482043266296 0.20624037086963654 -0.23409980535507202 -0.2160700112581253 0.19751274585723877 -0.11963341385126114 -0.27988994121551514 -0.21955396234989166 0.23858840763568878 -0.19107520580291748 -0.19661559164524078 0.2396574169397354 -0.16997219622135162 0.21292109787464142 0.26778528094291687 -0.21275971829891205 -0.23500189185142517 0.20285141468048096 0.2471158504486084 -0.2137129306793213 -0.09135983884334564 -0.253094345331192 -0.23231342434883118 
von 0.28336966 -0.2752314 -0.22642379 0.15652831 -0.1900092 0.10502243 -0.18922673 -0.18397154 -0.18532789 -0.35023865 0.19230627 -0.23723881 -0.15269083 -0.19095851 -0.03810477 0.19997254 -0.19869444 0.26241624 -0.29674906 -0.05890108 -0.1945358 -0.11970373 -0.09551745 -0.11465329 0.24799424 -0.27799594 0.27299467 0.32277852 0.30746454 -0.14854935 -0.20208737 0.2803225 0.18082586 -0.33638677 -0.14885819 -0.29274908 -0.2201631 -0.17606659 0.23393151 -0.20121285 0.28364906 0.16361174 -0.15076883 -0.0985466 0.15202008 0.19041383 -0.33973488 -0.33440402 -0.2994745 -0.2860734 
Belohnung 0.16008632 -0.12470317 -0.17713875 0.22116148 -0.26016855 0.19543646 -0.25417045 -0.15894482 -0.107714765 -0.061046142 0.3325912 -0.14834663 -0.22987056 -0.27746582 -0.08661548 0.28713205 0.048964046 0.24425434 -0.33289307 -0.18243901 -0.3572326 -0.096142516 -0.1133279 -0.003149576 0.23348176 -0.29111102 0.34607148 0.23282085 0.13297322 -0.035886746 -0.15948457 0.15169635 0.36793202 -0.17546766 -0.23753552 -0.35474923 -0.07970759 -0.2547347 0.15707904 -0.3375561 0.25312534 0.21724354 -0.25646758 -0.1764017 0.15551367 0.22973755 -0.15605634 -0.18710576 -0.23360367 -0.22509798 
Duo 0.13287187 -0.23610641 -0.20756587 0.19108108 -0.2778781 0.13630457 -0.16860293 -0.20076269 -0.1426244 0.2463968 0.22302988 -0.107342176 -0.2797363 -0.29784942 -0.14063968 0.25746647 -0.19900909 0.16411795 -0.26828942 -0.20834428 -0.23611264 -0.17397344 0.19825934 0.35108474 0.23512992 -0.2034816 0.19500376 0.18941559 0.15067478 -0.18198243 -0.14944996 0.23080902 -0.23929319 -0.26818395 -0.17015667 0.22153488 -0.19486263 -0.18371068 0.26872608 -0.10927192 0.11484714 0.2602098 -0.10423778 -0.26880243 0.16079387 0.22422318 -0.15240954 -0.2056972 -0.25500908 -0.27017504 
52 0.10417234897613525 -0.25230318307876587 -0.2034221887588501 0.31446805596351624 -0.21007129549980164 0.2119452953338623 -0.2276059240102768 -0.24255575239658356 -0.18890348076820374 0.12710852921009064 0.09098424762487411 -0.22013752162456512 -0.2593659460544586 -0.1975005716085434 -0.10048224776983261 0.21032142639160156 -0.13316258788108826 0.28053390979766846 -0.23180869221687317 -0.31001195311546326 -0.09690385311841965 -0.17642924189567566 0.1655682474374771 0.17391356825828552 0.19828994572162628 -0.1251336932182312 0.11253384500741959 0.13616637885570526 0.2051323801279068 -0.22398853302001953 -0.2121458351612091 0.20148421823978424 -0.09898702055215836 -0.26912590861320496 -0.190485417842865 0.23722538352012634 -0.17271099984645844 -0.19738641381263733 0.2297241985797882 -0.19300514459609985 0.21115340292453766 0.2563994228839874 -0.21908482909202576 -0.22132235765457153 0.21061500906944275 0.24415288865566254 -0.19169388711452484 -0.06890012323856354 -0.26150816679000854 -0.23833121359348297 
Gérard 0.15558101 -0.23501755 -0.16908105 0.23733856 -0.32138893 0.20579895 -0.28296548 -0.27668658 -0.2144499 0.24809685 0.26794606 -0.15671411 -0.17688707 -0.25969985 -0.15087853 0.08051736 -0.23848486 0.28093794 -0.19446674 -0.21398707 -0.25393617 -0.20940864 0.17577207 0.27196956 0.21105777 -0.31363276 0.17888805 0.14743249 0.14566381 -0.27061182 -0.21881297 0.17070071 -0.15075864 -0.14747283 -0.17305881 0.2513568 -0.20984302 -0.18741356 0.26594922 -0.30073515 0.24704066 0.18826988 -0.24388514 -0.20286088 0.20505439 0.114374004 -0.2759052 -0.1900415 -0.24165009 -0.2996854 
ebbs 0.22299357 -0.11512768 -0.18107006 0.08322853 -0.21807583 0.14488973 -0.16345708 -0.1519199 -0.19680768 -0.36242118 0.15684019 -0.16976546 -0.22886953 -0.1984898 -0.09093053 0.18012066 -0.072716236 0.15382186 -0.33764386 -0.23351991 -0.17619082 -0.24729882 0.16412133 -0.29001534 0.18953048 -0.34235212 0.15743019 0.27424622 0.21245904 -0.18800022 -0.19431478 0.19471927 0.33579257 -0.1849811 -0.27141726 0.07949819 -0.08455632 -0.2706419 0.25654417 -0.17465031 0.2596683 0.25446364 -0.23829749 -0.12662804 0.2450235 0.24022432 -0.13789277 -0.26342827 -0.2438264 -0.18539257 
68 0.10409384965896606 -0.24602340161800385 -0.2004248946905136 0.3174645006656647 -0.21213087439537048 0.21035611629486084 -0.22642265260219574 -0.24022024869918823 -0.19100596010684967 0.13045653700828552 0.09100280702114105 -0.22204625606536865 -0.2586079239845276 -0.19710594415664673 -0.09809845685958862 0.21511974930763245 -0.13627594709396362 0.28171586990356445 -0.2357720285654068 -0.31310802698135376 -0.09500513225793839 -0.1779690980911255 0.16799020767211914 0.17520977556705475 0.20113179087638855 -0.12349692732095718 0.11047986894845963 0.1360929012298584 0.21401576697826385 -0.22384744882583618 -0.21256522834300995 0.19595041871070862 -0.09552010893821716 -0.26468268036842346 -0.1888527125120163 0.23550456762313843 -0.17686903476715088 -0.19996768236160278 0.22788174450397491 -0.19477392733097076 0.21383079886436462 0.25850072503089905 -0.2175125926733017 -0.21835368871688843 0.21313083171844482 0.24876618385314941 -0.1955118328332901 -0.07040496170520782 -0.2545138895511627 -0.23855367302894592 
uff 0.23018977 -0.27225414 -0.1618648 0.1940144 -0.22196464 0.23353113 -0.14503238 -0.13215597 -0.22800611 0.31505415 0.08507964 -0.26787832 -0.19181482 -0.33141634 -0.22725932 0.18660736 -0.2570533 0.17578925 -0.292075 -0.18348554 -0.21117236 -0.18643138 0.18377063 0.23538594 0.2735255 -0.23241624 0.24627352 0.17525572 0.11598808 -0.14369273 -0.22831403 0.28793663 -0.31152007 -0.2501524 -0.28590897 0.090188585 -0.263588 -0.19399048 0.20862904 -0.09428553 0.18619284 0.11698642 -0.16858092 -0.22686508 0.2355371 0.2314034 -0.24695118 -0.18124758 -0.22200157 -0.12273795 
bìtteri 0.09178095 -0.31224337 -0.13512644 0.33235642 -0.14119291 0.107267015 -0.18203343 -0.23319305 -0.15887426 -0.1551226 0.20055343 -0.17512202 -0.30475983 -0.31320712 -0.1491297 0.14527163 0.07883686 0.24343802 -0.2659718 -0.17304264 -0.20087644 -0.25621298 0.027346019 0.075669765 0.20449024 -0.27559596 0.1730069 0.3356181 0.15624443 -0.092996046 -0.08879281 0.1879848 0.3634366 -0.17827268 -0.2189915 -0.18606718 -0.12132024 -0.15706868 0.30586636 -0.2320511 0.24402857 0.19728158 -0.15463613 -0.25531653 0.16258174 0.1527995 -0.22410433 -0.34762257 -0.31429055 -0.2774034 
maison 0.1664771 -0.23218767 -0.06925681 0.24219573 -0.15905377 0.17548366 -0.1342413 -0.19723783 -0.13909015 -0.34417254 0.26898053 -0.24526508 0.044658907 -0.2940815 -0.19226022 0.07331204 0.18387985 0.25333118 -0.24632558 -0.10381305 -0.25065774 -0.34042594 0.13301864 -0.20802338 0.27703023 -0.36466902 0.15813135 0.27124703 0.21818815 -0.28243703 -0.20772937 0.19914547 0.29699627 -0.13585 -0.019685576 -0.3219706 -0.15805374 -0.20561461 0.24500184 -0.20963708 0.3009133 0.17871088 -0.16870503 -0.057853565 0.2955429 0.22009039 -0.14826366 -0.2133521 -0.17824955 -0.32722205 
einem 0.22453709 -0.08275696 -0.28939065 0.189083 -0.19196422 0.21291885 -0.19617024 -0.21088192 -0.16885443 0.26689413 0.22842571 -0.14146529 -0.1435674 -0.29653618 -0.20887858 0.11207649 -0.31741065 0.2057665 -0.15092888 -0.1575525 -0.21493724 -0.17460331 0.18802747 0.33203214 0.15323302 -0.24222152 0.32013598 0.24397057 0.19290206 -0.18987691 -0.1668084 0.2721827 -0.27129987 -0.22051513 -0.25292253 0.3004486 -0.2493993 -0.16336684 0.21150123 -0.23046574 0.20600148 0.16987269 -0.14090322 -0.092346065 0.14841038 0.17550245 -0.20883268 -0.2953977 -0.31595692 -0.20920938 
jetz 0.2432701 -0.28260773 -0.23532872 0.11392309 -0.18672825 0.2248701 -0.13618873 -0.20154622 -0.26061642 -0.4559858 0.22145599 -0.107501045 -0.07337598 -0.24888429 -0.0991754 0.25670448 -0.11606861 0.2888601 -0.23502076 -0.13967986 -0.24456683 -0.18316557 0.15134078 -0.052518837 0.2852995 -0.28912586 0.32095397 0.13615234 0.16460836 -0.14829174 -0.3121671 0.17287354 0.28424728 -0.112386025 -0.24409479 -0.24307089 -0.08459902 -0.31431535 0.24654745 -0.24940318 0.21103488 0.1095967 -0.15205741 -0.15875001 0.16152522 0.12494642 -0.24869263 -0.1642765 -0.30979267 -0.29458886 
wo 0.2809467 -0.107481256 -0.16670871 0.3255858 -0.27907443 0.18514898 -0.14951916 -0.2914461 -0.23065016 0.40050748 0.19775859 -0.29662666 -0.23078144 0.13756303 -0.31267786 0.18636 -0.33044556 0.278203 0.3496507 -0.17647329 -0.15006585 -0.10805861 0.28273493 0.24863876 0.021388937 0.015111643 0.06362309 0.110634096 0.242161 -0.22396673 -0.16126983 0.22226667 -0.28985378 -0.19474378 -0.20495038 0.29401422 -0.16906638 -0.2208051 0.19652592 -0.112082705 0.221204 0.2687339 0.007602124 -0.32293308 -0.061344262 0.23221064 -0.21147014 -0.22556818 -0.03242359 0.09336468 
Henri 0.22014897 -0.23792195 -0.23952882 0.12697563 -0.27045965 0.24539359 -0.29144987 -0.24348694 -0.1847046 0.34242773 0.22989267 -0.2705308 -0.25138342 -0.19139193 -0.2270672 0.18781275 -0.21066636 0.22141129 -0.14214678 -0.08164682 -0.22240517 -0.1993394 0.1542334 0.33140698 0.23808907 -0.09553218 0.28180996 0.24779217 0.24310514 -0.20279007 -0.2852608 0.17502452 -0.20515198 -0.27022755 -0.20802309 0.20608081 -0.22568288 -0.17130233 0.16551767 -0.22296222 0.25954536 0.2687327 -0.2287955 -0.06805366 0.28661898 0.17124459 -0.15487307 -0.22823781 -0.1416132 -0.1959893 
* 0.25873715 -0.26451704 -0.22764562 0.22979368 -0.16767979 0.2835371 -0.29359633 -0.23418401 -0.058553025 0.25789636 0.19833653 -0.09379472 -0.25780615 -0.12074568 -0.22256286 0.1541384 -0.31860018 0.22451577 -0.020255253 -0.23320593 0.0010522342 -0.21186951 0.18870474 0.33349538 0.18414232 0.08865293 0.09955315 0.09850745 0.13387085 -0.3021035 -0.1920931 0.2237563 -0.30552104 -0.25772327 -0.3019328 0.24503729 -0.17984328 -0.17330298 0.17066434 -0.3307889 0.15257415 0.21178833 -0.2260543 -0.17781164 0.22443199 0.30138057 -0.16495217 0.1309264 -0.19802876 -0.23044445 
32 0.06205352395772934 -0.2576543986797333 -0.21021129190921783 0.2909020185470581 -0.20115135610103607 0.19896087050437927 -0.21955400705337524 -0.25643590092658997 -0.15837258100509644 0.12606202065944672 0.043890491127967834 -0.22683769464492798 -0.25983110070228577 -0.20603807270526886 -0.06528760492801666 0.1892508715391159 -0.13822492957115173 0.2866545021533966 -0.24428538978099823 -0.311310350894928 -0.04391545057296753 -0.15687307715415955 0.13780789077281952 0.16786308586597443 0.1901678740978241 -0.13395386934280396 0.10800066590309143 0.11092152446508408 0.20243234932422638 -0.21873365342617035 -0.21031641960144043 0.20674724876880646 -0.07907533645629883 -0.2680788040161133 -0.160241961479187 0.24342891573905945 -0.15493181347846985 -0.19243460893630981 0.21523232758045197 -0.21044284105300903 0.21282264590263367 0.2413671910762787 -0.2244633138179779 -0.20506183803081512 0.2147897183895111 0.2371627241373062 -0.17042165994644165 -0.022452831268310547 -0.284635990858078 -0.2621265649795532 
45 0.14753812551498413 -0.2444106638431549 -0.1881280392408371 0.348549485206604 -0.21439896523952484 0.23377014696598053 -0.23972134292125702 -0.23366422951221466 -0.2240234762430191 0.12842398881912231 0.15172079205513 -0.21468780934810638 -0.26966050267219543 -0.19791026413440704 -0.14921295642852783 0.24068473279476166 -0.13688941299915314 0.2722567319869995 -0.21541976928710938 -0.3081587553024292 -0.15712806582450867 -0.20299522578716278 0.19967398047447205 0.1875990778207779 0.2113487720489502 -0.1066066175699234 0.11803439259529114 0.16139329969882965 0.2168058305978775 -0.22863531112670898 -0.21236902475357056 0.1925005465745926 -0.1320953518152237 -0.26766350865364075 -0.23651818931102753 0.2309551239013672 -0.19915059208869934 -0.20024219155311584 0.24545489251613617 -0.16754546761512756 0.21051183342933655 0.2806844413280487 -0.20944403111934662 -0.23567062616348267 0.20339298248291016 0.2494167983531952 -0.22951027750968933 -0.12226654589176178 -0.2336978018283844 -0.21542862057685852 
bikumma 0.22805972 -0.22772093 -0.045771834 0.13257176 -0.16788335 0.23977223 -0.17538236 -0.11709196 -0.24177177 -0.032823496 0.33699986 -0.24314246 -0.16911612 -0.26587567 -0.24219768 0.18325107 0.19292542 0.29370084 -0.2972911 -0.17875458 -0.31965536 -0.2787227 0.19623762 -0.016947584 0.29830748 -0.24761266 0.31812698 0.20354246 0.18881996 -0.08650276 -0.2976435 0.22091983 0.19985552 -0.10526743 -0.3349842 0.06296316 -0.12117207 -0.16786072 0.24567254 -0.13699286 0.24801598 0.22120583 -0.22078297 -0.10925343 0.24015503 0.28618753 -0.13643605 -0.37210554 -0.3759409 -0.2590928 
Colmer 0.124636784 -0.17760095 -0.2914348 0.260833 -0.24653281 0.13337295 -0.24163394 -0.23437607 -0.18586664 0.16910958 0.22052515 -0.24357189 -0.13577816 -0.1524152 -0.2748855 0.24408242 -0.26441503 0.24922165 -0.2752338 -0.109720565 -0.11813406 -0.22776194 0.24643555 0.21820436 0.24467093 -0.24637493 0.20607144 0.22940168 0.20625176 -0.2721944 -0.22083686 0.24716511 -0.20008937 -0.1323628 -0.27251464 0.18855654 -0.14944586 -0.07393769 0.13985772 -0.17532979 0.21161862 0.24277963 -0.21894854 -0.2033909 0.19951862 0.17166914 -0.2530986 -0.24200857 -0.21692283 -0.24732542 
aü 0.153199 -0.2849139 -0.26670888 0.19348852 -0.12657163 0.2564625 -0.34388605 -0.13520335 -0.41896775 -0.48485973 0.38976094 -0.22710091 -0.22351286 -0.2578336 -0.11815565 0.23928444 0.18278918 0.052623607 -0.3041444 -0.29765436 -0.34691387 -0.31023732 -0.14893337 -0.3720694 0.2056308 -0.40066528 0.35761696 0.3056443 0.14955086 0.14689876 -0.29582262 0.21637374 0.4404806 -0.17848192 -0.30353597 -0.15179214 -0.020084737 -0.2963192 0.25261497 -0.37154344 0.38200778 0.16903593 -0.375871 -0.15554942 0.1469774 0.23657808 -0.26619792 -0.4148502 -0.226382 -0.34979132 
sim 0.22677888 -0.32705986 -0.26137903 0.21691668 -0.14233878 0.25807822 -0.26765987 -0.19781105 -0.20462169 0.19172393 0.27625433 -0.260213 -0.24765486 -0.16707128 -0.2049369 0.15419199 -0.20826732 0.21426381 -0.21553764 -0.12009662 -0.34166571 -0.26398295 0.16810673 0.22422646 0.11876781 -0.21948452 0.26772454 0.18657559 0.20509818 -0.26098022 -0.15852784 0.23281182 -0.20751892 -0.2589768 -0.27193183 0.22213933 -0.115690745 -0.20089135 0.32742068 -0.17870003 0.15638724 0.22810797 -0.13984472 -0.30937514 0.17374666 0.15103465 -0.29358727 -0.2978811 -0.15371788 -0.24142165 
'rem 0.31535694 -0.16632372 -0.2661108 0.12220723 -0.24179138 0.24133042 -0.20920734 -0.17161913 -0.09811483 0.28402627 0.14851177 -0.24553338 -0.14290199 -0.21616831 -0.32502776 0.18725589 -0.19992733 0.26133165 -0.25484228 -0.13476227 -0.28179863 -0.16740568 0.2207216 0.33439463 0.1707156 -0.2955906 0.2548159 0.22028165 0.19630753 -0.26177636 -0.19408563 0.21313502 -0.27451771 -0.29335845 -0.25150004 0.17979248 -0.20289749 -0.17060915 0.2479188 -0.17104541 0.18096547 0.14712866 -0.2205604 -0.22781652 0.15908046 0.19685817 -0.20697597 -0.22483943 -0.19461034 -0.27193624 
àls 0.2544312 -0.08983696 -0.09895698 0.2633397 -0.18494214 0.31479183 -0.11801002 -0.25595605 -0.23488165 0.3633466 0.30097896 -0.31359088 -0.27338997 -0.15244947 -0.24176179 0.19834271 -0.17227417 0.24391714 -0.22598659 -0.07430428 -0.21539582 -0.174223 0.2002262 0.26524284 0.26263765 -0.25041288 0.15749975 0.21291265 0.19054155 -0.14610095 -0.1533445 0.15121472 -0.29295892 -0.1849117 -0.28212214 0.23256764 -0.22163305 -0.23958084 0.26150686 -0.2572293 0.25052595 0.23050028 -0.11165434 -0.14306936 0.11921197 0.18938111 -0.20622377 -0.14527823 -0.18469168 -0.17009513 
1940 -0.08627064 -0.20085484 -0.08576679 0.173889 -0.22861141 0.053469326 -0.19946043 -0.1465197 0.009738494 -0.0010281864 -0.06315324 -0.18718806 -0.29916215 -0.21908279 0.016521716 -0.08329851 -0.19278173 0.17831644 -0.22224858 -0.27752328 -0.019192243 -0.29627594 -0.11477149 0.07818733 0.19914576 -0.11852703 0.17526986 0.24295081 0.3332303 -0.10471837 -0.1581482 0.08961348 -0.09262409 -0.27918747 0.14573255 -0.07450063 -0.14914198 -0.21653505 0.110454656 -0.35447457 0.32566622 0.15104486 -0.2413546 -0.13540013 0.17216873 0.10576592 -0.16659924 0.14675377 -0.20487933 -0.26983872 
ésch 0.34127045 -0.16120309 -0.17904441 0.2789463 -0.34334356 0.4097275 -0.2910039 -0.22258428 -0.30590144 0.3519743 0.23116961 -0.25915086 -0.25709936 0.02120894 -0.3291927 0.20468912 -0.40620315 0.24518895 0.12430392 -0.30897224 -0.23509198 -0.13876414 0.363208 0.37263447 0.12579939 0.027715232 0.08889537 0.12046876 0.20832632 -0.33305722 -0.1979271 0.33879673 -0.29021767 -0.26183265 -0.2947109 0.37901855 -0.35225996 -0.19504233 0.21886009 -0.07212637 0.15958957 0.26836908 -0.0037256335 -0.33706766 0.07584519 0.26767743 -0.263681 -0.1110335 0.0062544914 0.06408054 
71 0.09516369551420212 -0.24130164086818695 -0.2084435522556305 0.31667858362197876 -0.20612230896949768 0.2109745442867279 -0.23187986016273499 -0.2475922703742981 -0.18016475439071655 0.13052508234977722 0.07914605736732483 -0.22145739197731018 -0.2658434212207794 -0.19579975306987762 -0.0966506078839302 0.20367562770843506 -0.13552024960517883 0.28402775526046753 -0.234910249710083 -0.3136952221393585 -0.07814750075340271 -0.17986427247524261 0.1531115472316742 0.18124133348464966 0.2016306221485138 -0.1205313503742218 0.10948370397090912 0.12586736679077148 0.20525677502155304 -0.2255961298942566 -0.21615658700466156 0.20102037489414215 -0.09660574793815613 -0.27402687072753906 -0.18804079294204712 0.24018119275569916 -0.17627619206905365 -0.19629935920238495 0.23199760913848877 -0.19337017834186554 0.21538899838924408 0.25259581208229065 -0.21732722222805023 -0.22464442253112793 0.21396127343177795 0.24339546263217926 -0.19064119458198547 -0.0480327308177948 -0.2716796398162842 -0.2512507438659668 
Franzescha 0.18548794 -0.2863612 -0.2647306 0.14486597 -0.23745391 0.30383554 -0.25804678 -0.2225367 -0.1789223 0.2569787 0.2562639 -0.19741832 -0.1467642 -0.23941557 -0.21550031 0.2814624 -0.26432678 0.18286072 -0.27113545 -0.21996917 -0.17137697 -0.074671574 0.15488194 0.23453483 0.21631859 -0.14780065 0.22727588 0.13227351 0.16368799 -0.13300517 -0.17752412 0.2385387 -0.25710776 -0.24529754 -0.28894323 0.19769396 -0.105672985 -0.1008206 0.2834786 -0.23511757 0.20505498 0.22980726 -0.25741333 -0.14973164 0.21662419 0.22564217 -0.3303463 -0.25096866 -0.20800127 -0.31218606 
16 0.08756688237190247 -0.23692068457603455 -0.2082093507051468 0.3117491602897644 -0.20673367381095886 0.20412206649780273 -0.22414007782936096 -0.2467382848262787 -0.17775869369506836 0.1300518661737442 0.07125593721866608 -0.2144935429096222 -0.25493690371513367 -0.19781313836574554 -0.07133562862873077 0.20295733213424683 -0.13979291915893555 0.27982234954833984 -0.23935270309448242 -0.3152005672454834 -0.07150992751121521 -0.170329287648201 0.1479252576828003 0.17168012261390686 0.20060814917087555 -0.1293795108795166 0.11168505251407623 0.12456579506397247 0.20384708046913147 -0.21693763136863708 -0.21302370727062225 0.19864600896835327 -0.08928905427455902 -0.26753538846969604 -0.17440727353096008 0.2300427407026291 -0.1733357459306717 -0.19540834426879883 0.22730326652526855 -0.20004194974899292 0.21279293298721313 0.2516453266143799 -0.21364086866378784 -0.2120315432548523 0.21644261479377747 0.2451445311307907 -0.1945357620716095 -0.04687701165676117 -0.2637031078338623 -0.2465982437133789 
„ 0.24799293 -0.21883187 -0.15624896 0.2821198 -0.23484825 0.25004062 -0.1630732 -0.24347661 -0.21377622 0.21562402 0.1895659 -0.17151304 -0.2886744 -0.25137335 -0.3403149 0.32672185 -0.3468022 0.25700128 -0.38753247 -0.24298021 -0.15101552 -0.3051183 0.26624805 0.1784902 0.21934122 -0.3769089 0.17937635 0.23435795 0.27676168 -0.29420328 -0.22239897 0.2980652 -0.17715298 -0.23115857 -0.21771634 0.32990038 -0.27044693 -0.23877697 0.237906 -0.29631993 0.2367598 0.2529179 -0.159869 -0.23792155 0.28630242 0.33388042 -0.35993385 -0.24411012 -0.2749761 -0.22897446 
Kochersberg 0.20418644 -0.18552256 -0.16791002 0.2492047 -0.106585994 0.123443715 -0.104004875 -0.20442979 -0.300332 -0.3890938 0.24261214 -0.24093017 -0.20099197 -0.38306952 -0.030004337 0.1753341 -0.27349284 0.048015278 -0.36442348 -0.22246447 -0.31080526 -0.16926077 0.121267796 -0.15597703 0.14646289 -0.35219267 0.1921048 0.3112118 0.24733675 -0.20552903 -0.20664367 0.09578819 0.20608254 -0.14770077 -0.23604912 -0.26038682 -0.21706614 -0.15669769 0.27896672 -0.2757105 0.35609552 0.17738889 -0.17845777 -0.1349979 0.25667515 0.14417234 -0.19064505 -0.31189 -0.22832316 -0.17816962 
Àktivitäta 0.15104483 -0.20399128 -0.18834276 0.28957725 -0.19565628 0.19690557 -0.20223418 -0.1412343 -0.20971774 0.31521374 0.075773664 -0.19567439 -0.22996898 -0.15057729 -0.19856259 0.24783872 -0.32014397 0.2694562 -0.17726661 -0.1399933 -0.21235844 -0.21136023 0.20017202 0.20226304 0.13226077 -0.23793614 0.14167409 0.25052753 0.29402375 -0.2774621 -0.32483494 0.2447303 -0.27101925 -0.32123202 -0.20051356 0.19480166 -0.23253098 -0.092553295 0.31529632 -0.24390312 0.21474826 0.21729226 -0.15784834 -0.18283041 0.29247704 0.155478 -0.27603373 -0.21097058 -0.19167778 -0.17379373 
D 0.23837298 -0.30631566 -0.16163267 0.2068893 -0.19422518 0.26024333 -0.14168398 -0.2757515 -0.24205473 0.40173393 0.2695694 -0.22860022 -0.26880708 -0.23651388 -0.2767105 0.25748438 -0.22168435 0.29370722 -0.1503072 -0.21178734 -0.29241645 -0.17256407 0.31048477 0.3588162 0.35253888 -0.15106678 0.19029927 0.1977668 0.3285111 -0.24958675 -0.25351214 0.28138027 -0.3727458 -0.26579168 -0.25555092 0.25142297 -0.231507 -0.17513451 0.19696134 -0.28536746 0.21526848 0.21165924 -0.29419583 -0.24861379 0.25293437 0.31271717 -0.20563003 -0.37239298 -0.28685284 -0.19709735 
Bach 0.196871 -0.10882743 -0.20911145 0.30199802 -0.23950258 0.20591934 -0.22123444 -0.20295043 -0.297078 0.2865222 0.23287825 -0.2542477 -0.13879487 0.2578422 -0.33346656 0.35450304 -0.35183346 0.18066919 0.25635964 -0.15397623 -0.12584783 -0.1759678 0.38781616 0.22098489 -0.005709083 0.3297585 -0.08929732 0.22813219 0.25271067 -0.2165375 -0.06872551 0.25840503 -0.38567424 -0.2255413 -0.22781484 0.28205192 -0.15443675 -0.18655719 0.22540803 -0.12887229 -0.0022645069 0.2672063 0.104986474 -0.26777366 -0.0017307657 0.24695513 -0.29863673 -0.1245045 0.22696549 0.32853243 
Sunne 0.07068893 -0.056067266 -0.16443081 0.24985072 -0.14233096 0.21934184 -0.07332299 -0.24740441 -0.28969106 -0.09738815 0.18444458 -0.19578288 -0.13371243 -0.23516198 -0.12385763 0.14599657 -0.09446734 0.12530363 -0.28147405 -0.19628222 -0.23018774 -0.2476516 -0.14588569 0.0031701303 0.25146538 -0.2466595 0.20469314 0.2656082 0.26288202 -0.024349274 -0.16155902 0.21779168 0.35926577 -0.27273545 -0.07477669 -0.39195567 -0.104978375 -0.15819642 0.11280123 -0.19275704 0.32882795 0.117649555 -0.18605012 -0.030210365 0.24492763 0.25246152 -0.24055606 -0.20663498 -0.27469462 -0.29096925 
pro 0.17147887 -0.23275761 -0.13918608 0.18295404 -0.17055847 0.20634441 -0.3324397 -0.2036263 -0.20398697 0.16396925 0.1986817 -0.25600654 -0.22694509 -0.10503454 -0.20428066 0.26768786 -0.3089911 0.14558747 -0.26907656 -0.19504061 -0.10861412 -0.10371257 0.28684315 0.2462644 0.29529878 -0.079089865 0.25781387 0.28094098 0.29225853 -0.12278521 -0.13646741 0.27287668 -0.35608706 -0.26658526 -0.32407966 0.22568585 -0.19986531 -0.09288754 0.15995365 -0.11334531 0.15844665 0.12092735 -0.23376209 -0.2486854 0.21102904 0.17646837 -0.19298866 -0.107847184 -0.10139152 -0.3079163 
gmolt 0.2685367 -0.27247524 -0.17743908 0.22976916 -0.2706196 0.24358284 -0.24975286 -0.20677923 -0.1923126 0.25124148 0.24672924 -0.3137818 -0.18156491 -0.18672943 -0.209014 0.30683935 -0.20115048 0.123128556 -0.30519676 -0.14502953 -0.19195986 -0.19061553 0.274094 0.2522056 0.23016265 -0.25253212 0.23312116 0.19608134 0.14465366 -0.19349255 -0.17313522 0.18819977 -0.20380905 -0.22239967 -0.1587464 0.29237217 -0.19807447 -0.260815 0.16305238 -0.14335164 0.2199416 0.17469318 -0.14779565 -0.11179971 0.1599237 0.22815597 -0.2817333 -0.20931949 -0.2633011 -0.09768046 
gha 0.1269624 -0.2681374 -0.18890634 0.2489854 -0.20385188 0.18175688 -0.16662127 -0.29803622 -0.27362415 0.28656986 0.18397929 -0.32983884 -0.2251163 -0.193564 -0.2884434 0.14075656 -0.21107602 0.27008435 -0.13548437 -0.2235409 -0.1626412 -0.27768737 0.18378699 0.25234514 0.19980799 -0.23110269 0.10376838 0.24999413 0.21471561 -0.2946592 -0.14218189 0.28564426 -0.20547847 -0.18587829 -0.17358269 0.2905018 -0.24319401 -0.23380215 0.22021489 -0.24596868 0.18120588 0.18961382 -0.10603931 -0.23841724 0.18725309 0.14647405 -0.2628932 -0.2378056 -0.10211575 -0.2861221 
Gebìrtiger 0.20397288 -0.2993689 -0.15867679 0.22956479 -0.19409491 0.14116132 -0.22908849 -0.24995996 -0.25531262 0.29905856 0.13069919 -0.17393973 -0.21527134 -0.29358828 -0.2154135 0.08575898 -0.21411368 0.15269995 -0.19161907 -0.20794353 -0.284429 -0.17683588 0.14918333 0.26213416 0.21667804 -0.18098034 0.22792934 0.15819146 0.15902615 -0.22400352 -0.25488096 0.19866626 -0.28351316 -0.33801037 -0.24520077 0.22884913 -0.2278724 -0.27177876 0.19682714 -0.2782695 0.16052444 0.0975041 -0.22870411 -0.20995109 0.15809247 0.18544896 -0.1788927 -0.2991371 -0.17090353 -0.21668947 
Kuder 0.27793676 -0.23907383 -0.21809307 0.23847196 -0.15600772 0.14646295 -0.22910267 -0.12261638 -0.2411814 0.14567804 0.29417348 -0.2136247 -0.18825203 -0.24915232 -0.2987231 0.24242322 -0.15802453 0.10853345 -0.22122714 -0.09680589 -0.32475576 -0.2149085 0.16728552 0.2907153 0.22833891 -0.1929687 0.20081706 0.20300156 0.2773905 -0.23165306 -0.23319823 0.16722795 -0.29971346 -0.23069946 -0.1847252 0.15730293 -0.14206287 -0.09513764 0.2125823 -0.21022673 0.2816445 0.250285 -0.24476029 -0.2999653 0.2615364 0.24027632 -0.16798167 -0.18161562 -0.18724923 -0.2524705 
↑ 0.31418374 -0.086611554 -0.18283315 0.30031323 -0.1434809 0.2969858 -0.23988988 -0.1794554 -0.24790604 0.35409874 0.3420037 -0.24342197 -0.2776978 0.09501075 -0.3767826 0.18909322 -0.34640652 0.302454 0.10062921 -0.11271959 -0.21149665 -0.23124039 0.21004952 0.19029437 0.12752086 0.16464004 0.114849806 0.19722904 0.22050984 -0.22523345 -0.14992422 0.15034953 -0.30988812 -0.26570773 -0.21095403 0.19019575 -0.1514778 -0.21401848 0.1456168 -0.06780538 0.23887411 0.13293423 -0.051698606 -0.28325796 -0.0032555216 0.19057754 -0.23157077 -0.3721143 0.14185372 0.23353934 
Lembàch 0.13958576 -0.24855568 -0.26233998 0.21584903 -0.17062888 0.18198654 -0.261535 -0.19456793 -0.2076598 -0.2841431 0.19238593 -0.22174624 0.009225775 -0.28348947 -0.0033235864 0.1385671 -0.0814896 0.24988477 -0.17283425 -0.15949968 -0.3223675 -0.18305795 -0.042009633 -0.04353684 0.19518007 -0.23530477 0.2839713 0.25703874 0.19777313 -0.09615702 -0.2015486 0.23957084 0.34849593 -0.047979776 -0.256306 -0.3095817 -0.06990034 -0.22657266 0.3340527 -0.23155947 0.18695112 0.22940424 -0.18539096 -0.12178714 0.3183446 0.30208856 -0.19621325 -0.2915746 -0.18337694 -0.25710702 
kumme 0.22820555 -0.35631838 -0.22756387 0.22663572 -0.3315321 0.2265349 -0.21454273 -0.17842141 -0.30924 0.2383931 0.22432944 -0.2529353 -0.31625175 -0.2782103 -0.22348116 0.2607733 -0.25519162 0.34562936 -0.18348841 -0.19806802 -0.3533101 -0.21920465 0.22160196 0.33505037 0.2262489 -0.20942038 0.22184072 0.20962729 0.27690777 -0.29421058 -0.36278507 0.21262217 -0.29597804 -0.35829172 -0.33585382 0.31703657 -0.22849846 -0.23965839 0.26222357 -0.18243775 0.25202683 0.27066845 -0.18614742 -0.30969754 0.19663665 0.22157146 -0.29531357 -0.3366745 -0.22659983 -0.2960156 
honneur 0.18451063 -0.12547702 -0.22526719 0.121324256 -0.1301501 0.26029453 -0.16336025 -0.23744136 -0.2001816 -0.28506947 0.22066157 -0.2398031 -0.31258726 -0.19655511 -0.2548703 0.05957892 0.20794283 0.24411967 -0.22866048 -0.12565984 -0.22233662 -0.19112591 0.10697544 0.14194514 0.31460232 -0.271489 0.25196525 0.15895036 0.23391835 -0.111740805 -0.290122 0.08634726 0.1520572 -0.05610251 -0.19041373 -0.25513095 -0.08655268 -0.31691134 0.27304664 -0.17457758 0.26659274 0.04556121 -0.31334022 -0.071981125 0.19422793 0.14421345 -0.15733245 -0.35706928 -0.2689232 -0.23691803 
Thema 0.31318018 -0.16629821 -0.17347091 0.15513124 -0.18462849 0.24427351 -0.20983604 -0.24650502 -0.25455284 0.26289603 0.17534655 -0.16316943 -0.23744057 -0.22986722 -0.25947884 0.23144591 -0.27618504 0.17738545 -0.26630056 -0.07270691 -0.27481025 -0.13025802 0.24029453 0.21056107 0.21312322 -0.18378729 0.1590482 0.10133818 0.19638169 -0.15677759 -0.1071246 0.25477442 -0.27437168 -0.111736864 -0.2282824 0.24031122 -0.1753056 -0.20549886 0.21027999 -0.16813874 0.22001612 0.2698721 -0.27396134 -0.25960246 0.18573238 0.2305238 -0.15294734 -0.11860672 -0.29703465 -0.1762156 
dunnert 0.15355562 -0.19151412 -0.26294643 0.2650034 -0.19439693 0.22491372 -0.20842423 -0.24197873 -0.12193182 0.40899038 0.21706778 -0.31660488 -0.2432268 0.38177186 -0.2573676 0.26550576 -0.26164594 0.12004458 0.4036051 -0.117763214 -0.26945964 -0.11678681 0.25062993 0.27087006 0.0030616808 0.37881142 -0.010985418 0.258547 0.13007195 -0.3673304 -0.18464401 0.17689325 -0.34120435 -0.31080043 -0.27119124 0.26545936 -0.21050875 -0.16770513 0.25201288 -0.1536565 0.12606646 0.27980942 0.14752917 -0.25417134 -0.014623867 0.31042933 -0.26055035 -0.17120449 0.21271622 0.32733282 
ere 0.09856641 -0.15932086 -0.111283705 0.21274433 -0.22743694 0.15543433 -0.21875468 -0.14797251 -0.1576413 0.3008679 0.23640198 -0.1643528 -0.25444168 -0.22857198 -0.17003362 0.11432997 -0.2069039 0.13364331 -0.16929798 -0.1629196 -0.20181039 -0.19486707 0.21155559 0.20925876 0.2464096 -0.16703214 0.09756618 0.25315878 0.10159889 -0.29156354 -0.2665123 0.26648006 -0.22063154 -0.20815392 -0.13330142 0.27954254 -0.2923756 -0.16298671 0.22257099 -0.22855449 0.23721921 0.29470772 -0.20141761 -0.24179722 0.19209763 0.17826916 -0.1510702 -0.24211915 -0.16188122 -0.31026733 
Minuta 0.1636183 -0.32780924 -0.2598257 0.24090667 -0.2363587 0.18714936 -0.12535612 -0.21785979 -0.28608876 0.21685244 0.18914324 -0.27281162 -0.23891409 -0.23294425 -0.10430977 0.23129886 -0.15638942 0.17646864 -0.09689053 -0.24429487 -0.22329244 -0.17114386 0.21418914 0.23271635 0.17288344 -0.11730557 0.14524615 0.21258138 0.14746168 -0.1533707 -0.17687888 0.24971677 -0.21804066 -0.22132656 -0.2571042 0.15797526 -0.19816673 -0.24383816 0.1787342 -0.2666153 0.23785962 0.18929495 -0.17471354 -0.20530297 0.13862741 0.23600206 -0.19855113 -0.25395194 -0.31498325 -0.30571556 
hàn 0.14884779 -0.11347944 -0.20998637 0.07933205 -0.28172213 0.25911856 -0.265533 -0.18526976 -0.19923231 -0.061763275 0.10728603 -0.18852562 -0.030951766 -0.2425878 -0.27491933 0.17936699 0.07484608 0.12254583 -0.33787468 -0.16850874 -0.20295918 -0.22465463 0.08146029 0.12739484 0.2304055 -0.31909537 0.30160365 0.2497278 0.19408347 0.045352235 -0.18952003 0.236077 0.16194983 -0.12627703 -0.23342755 -0.14476751 -0.023491098 -0.20757765 0.21746449 -0.35313046 0.30405483 0.13169783 -0.3014921 -0.16593944 0.1957618 0.13632338 -0.35408768 -0.30887604 -0.298199 -0.18686345 
iwwerwinde 0.214996 -0.19101109 -0.17290565 0.1647477 -0.17908683 0.20952736 -0.15134925 -0.19481046 -0.2064542 -0.29526138 0.27361628 -0.04400647 -0.0022198085 -0.2547651 0.040908754 0.24632412 0.120812334 0.24574295 -0.2761614 -0.15459983 -0.1446841 -0.28222215 0.041845385 -0.15928063 0.20791446 -0.290974 0.23190166 0.27081838 0.16180074 -0.07290213 -0.24728523 0.0697842 0.24458122 -0.14323178 -0.14428684 -0.4199183 -0.22724588 -0.226193 0.26171008 -0.24083202 0.22329213 0.18843281 -0.24799365 -0.05813822 0.1871131 0.15178216 -0.30053213 -0.1789022 -0.27877876 -0.22296835 
nach 0.24899384 -0.29401094 -0.14103301 0.16095154 -0.24608788 0.19974568 -0.1918176 -0.2649602 -0.19884114 0.30249396 0.30738497 -0.22038327 -0.24956462 0.30231813 -0.3021112 0.28182176 -0.19680409 0.25100017 0.3536937 -0.14225997 -0.13050418 -0.15968403 0.3434277 0.3441392 -0.14882894 0.31524622 -0.047944434 0.23839928 0.31955707 -0.29497826 -0.21616924 0.149766 -0.29295534 -0.26726496 -0.30065122 0.29298878 -0.30817398 -0.2652479 0.20777385 -0.22023739 0.23979811 0.18588786 0.20220278 -0.20231064 -0.0392317 0.17345345 -0.24948433 -0.14303344 0.4106334 0.37128738 
beriehmta 0.24767411 -0.26792336 -0.13399528 0.27335355 -0.15428403 0.15475933 -0.0731686 -0.12345303 -0.23993121 -0.1408153 0.13964278 -0.20160688 -0.18038918 -0.24563801 -0.11427058 0.18502033 0.16981855 0.33765888 -0.23451136 -0.13112202 -0.15934257 -0.184659 0.02380418 0.10498892 0.21884187 -0.30632198 0.24967702 0.27835855 0.24969396 -0.118136555 -0.20303264 0.19384332 0.25954828 -0.18513156 -0.17574127 -0.28967214 0.08756938 -0.29604647 0.21987088 -0.17896569 0.17824496 0.19088408 -0.18711616 -0.06375973 0.2373227 0.18337587 -0.27191982 -0.30193883 -0.32927743 -0.28025582 
iwwer 0.18192399 -0.17678837 -0.14655136 0.1761831 -0.13586546 0.17896843 -0.17298968 -0.19205385 -0.3310777 0.12430135 0.28153455 -0.24252476 -0.22279817 -0.16065827 -0.23154703 0.17379063 -0.1355578 0.25870597 -0.17005642 -0.24084203 -0.15962817 -0.17063278 0.24632312 0.19181792 0.16194917 -0.2285547 0.25225925 0.28648224 0.25018197 -0.20650014 -0.27654207 0.221715 -0.120284244 -0.2579126 -0.12809849 0.16208781 -0.23641469 -0.24920994 0.26936322 -0.31271443 0.2981112 0.15122847 -0.21704315 -0.19779968 0.15494935 0.16216995 -0.17493589 -0.23145957 -0.2843511 -0.33479473 
e 0.14884418 -0.2896834 -0.33590722 0.35739952 -0.27988505 0.21120067 -0.3040981 -0.24729204 -0.21932036 0.3080209 0.34991556 -0.20967421 -0.3243147 -0.21236756 -0.34597513 0.23053564 -0.29798144 0.20417029 -0.3555425 -0.3384258 -0.1879571 -0.25283125 0.34005573 0.37939823 0.37491065 -0.32898468 0.23453334 0.2387969 0.28599843 -0.26011062 -0.34203157 0.27433455 -0.35530964 -0.23035535 -0.21857803 0.31618333 -0.28374112 -0.3028715 0.41196546 -0.29136735 0.22222342 0.22073314 -0.28426462 -0.260658 0.2961043 0.23535606 -0.33809507 -0.43170935 -0.31489494 -0.30122545 
unsere 0.19015874 -0.19132058 -0.18922865 0.21533237 -0.16305275 0.11351821 -0.2490229 -0.11553306 -0.16898698 0.22324897 0.21057472 -0.15038803 -0.20650975 -0.31224272 -0.20497634 0.18452816 -0.2921835 0.1750551 -0.17790791 -0.19105762 -0.14369042 -0.1968479 0.2032452 0.22560768 0.2669674 -0.088968866 0.15621643 0.15175013 0.32114315 -0.26845834 -0.21781534 0.28606188 -0.2711001 -0.2278818 -0.11124798 0.24821815 -0.22898719 -0.16935621 0.18929262 -0.16789314 0.2736993 0.33875027 -0.18439054 -0.25401312 0.26109913 0.25088617 -0.24441797 -0.3243028 -0.17260444 -0.17446294 
Katze 0.25942454 -0.1472172 -0.25908068 0.30589983 -0.09628999 0.07713727 -0.16620402 -0.120407574 -0.17785895 -0.36866298 0.116326906 -0.123011574 -0.18827333 -0.32583526 -0.094372176 0.13493341 -0.16610382 0.29794672 -0.29849792 -0.2866949 -0.2987008 -0.13135612 0.033262916 -0.051263954 0.27713627 -0.15313986 0.23169696 0.16098352 0.16469574 -0.30902618 -0.23004782 0.27732837 0.3183051 -0.15332378 -0.32739744 -0.19248292 -0.12820059 -0.24774705 0.2751499 -0.20656359 0.35126927 0.12254096 -0.13916355 -0.12946883 0.22162913 0.125867 -0.24308886 -0.28310162 -0.27501622 -0.27273118 
wir 0.11577273 -0.17090715 -0.09558313 0.12433078 -0.2226404 0.2586447 -0.22028723 -0.10013175 -0.148833 0.3012674 0.12723553 -0.19968168 -0.22083996 -0.22145349 -0.25870717 0.21434914 -0.09222919 0.19307105 -0.2664469 -0.3089096 -0.24873166 -0.24053441 0.26541406 0.21842729 0.19661461 -0.24073973 0.26603246 0.09924365 0.24551791 -0.28163308 -0.1699399 0.097082615 -0.16608176 -0.17497702 -0.22793958 0.25483894 -0.14709112 -0.23999114 0.230515 -0.16993742 0.32475165 0.22772188 -0.23501284 -0.29745114 0.2151144 0.13218921 -0.25987026 -0.3249432 -0.14749056 -0.18721451 
gsìì 0.3266947 -0.19587123 -0.30463675 0.30533993 -0.33206245 0.18974523 -0.2289434 -0.15615687 -0.2452785 0.24701864 0.1518181 -0.3089533 -0.2666672 -0.31650415 -0.16809495 0.210433 -0.28455845 0.20904912 -0.3854622 -0.29548782 -0.16042173 -0.31611997 0.27197677 0.32697088 0.33106732 -0.24979742 0.25409293 0.2739679 0.320096 -0.23854828 -0.34301627 0.26985648 -0.30177632 -0.3340151 -0.2135893 0.28859848 -0.21382615 -0.31012857 0.23877236 -0.24299593 0.29692468 0.21363218 -0.24221079 -0.1508609 0.2624301 0.24282286 -0.17836009 -0.23690541 -0.26577425 -0.2259012 
à 0.18934695 -0.28680754 -0.24100867 0.20180872 -0.22390991 0.21642603 -0.16094108 -0.15003413 -0.19283417 0.26383924 0.19822371 -0.28167665 -0.31605422 -0.26980823 -0.11155504 0.11187283 -0.2380576 0.29803088 -0.20580423 -0.1924911 -0.17344873 -0.17793185 0.22698106 0.24528772 0.29855993 -0.22571546 0.23891635 0.13447943 0.24747795 -0.115863 -0.2423631 0.21835366 -0.16343196 -0.21634534 -0.23275092 0.2515825 -0.18154162 -0.15429886 0.2563443 -0.21116701 0.15986831 0.20403484 -0.29414445 -0.2165455 0.15542465 0.20295274 -0.27828324 -0.23252028 -0.21097767 -0.14240849 
Genfer 0.23889416 -0.15076931 -0.21988143 0.29939294 -0.13524066 0.23605245 -0.2346676 -0.23768806 -0.19581775 0.12521517 0.22885717 -0.17795351 -0.25996342 -0.1445081 -0.19303697 0.12198215 -0.2667947 0.18185535 -0.30236828 -0.18289681 -0.3253821 -0.25523257 0.3003022 0.31975052 0.15286908 -0.11477509 0.26950198 0.15190314 0.21063958 -0.1110614 -0.1727876 0.21188411 -0.34017888 -0.23880275 -0.16312255 0.2475654 -0.2104356 -0.15446551 0.20567958 -0.20704007 0.2822628 0.20786108 -0.23262227 -0.23589829 0.2081806 0.16915114 -0.25565132 -0.10881176 -0.2472772 -0.11917651 
z 0.16511758 -0.13267033 -0.17298064 0.26997253 -0.22977436 0.15346093 -0.12519895 -0.21861833 -0.19168808 0.19950373 0.18278034 -0.2443825 -0.2126786 -0.2332381 -0.17140758 0.20248033 -0.30119365 0.2610636 -0.13504496 -0.21404317 -0.15419576 -0.23042233 0.16260791 0.32502672 0.20394373 -0.1935184 0.20658234 0.22045013 0.19091901 -0.11561209 -0.18822889 0.20516464 -0.2467188 -0.25021067 -0.17126323 0.19329813 -0.19299477 -0.19926889 0.1275065 -0.15831392 0.2852221 0.26264152 -0.26583102 -0.22968523 0.32895535 0.20203468 -0.22245541 -0.2498045 -0.15595473 -0.3168366 
René 0.13803424 -0.19174704 -0.27277264 0.17355072 -0.10470992 0.23994063 -0.16653985 -0.15393247 -0.292012 -0.39216873 0.12547654 -0.14706892 -0.032092523 -0.20779444 -0.15656887 0.1990279 -0.13386132 0.20772421 -0.3121292 -0.1686667 -0.2250213 -0.26970667 -0.037651837 0.007815031 0.26419675 -0.34040362 0.28296968 0.23591094 0.12871721 -0.12737301 -0.13351567 0.10530718 0.2961486 -0.12759075 -0.19041048 -0.22842406 0.040062368 -0.18177411 0.28006533 -0.13621575 0.3142702 0.18670478 -0.28289983 -0.23428419 0.24409279 0.22581641 -0.2131941 -0.29599607 -0.18186608 -0.35040593 
Politiker 0.22758453 -0.25465783 -0.3028621 0.12579201 -0.12809916 0.06954903 -0.13435417 -0.29551718 -0.19700629 -0.2282414 0.2526463 -0.13934377 -0.0149936145 -0.3777962 -0.13352676 0.28533536 0.004158497 0.052411605 -0.25366527 -0.11512103 -0.2350764 -0.24031502 0.116488256 0.028581329 0.21373448 -0.23348677 0.34400064 0.21681203 0.16184005 0.053907774 -0.16535588 0.073787615 0.39589036 -0.18670845 -0.17561847 -0.43711278 0.079949714 -0.31446788 0.19625494 -0.33106592 0.33378497 0.08942524 -0.21692774 -0.12746935 0.18143642 0.10572808 -0.22135192 -0.20940888 -0.22695257 -0.27317086 
Editions 0.18177044 -0.17116083 -0.25854984 0.20320508 -0.14574218 0.16576353 -0.19123745 -0.28133136 -0.2900809 -0.08085942 0.1891189 -0.24187708 -0.16158633 -0.30986026 -0.06948347 0.30454427 -0.039763927 0.33073157 -0.32709816 -0.20620425 -0.21100597 -0.3059059 0.15558477 -0.0003984279 0.2749354 -0.35481632 0.31844974 0.2425458 0.30453047 0.04250472 -0.26925382 0.16384526 0.11951008 -0.2855855 -0.3637702 0.0031919796 -0.17740136 -0.19171795 0.16919266 -0.15053765 0.3622967 0.13025434 -0.3230229 -0.20260376 0.30004686 0.19002497 -0.24687496 -0.34000325 -0.38393626 -0.32033664 
kà 0.23062094 -0.24171837 -0.30620366 0.28892156 -0.28280592 0.2762223 -0.22773887 -0.15425777 -0.16539548 0.21474992 0.20837566 -0.27569014 -0.35277596 0.29709086 -0.24309388 0.26947802 -0.3073426 0.18856221 0.38155916 -0.2345083 -0.27238685 -0.08073319 0.22666903 0.28066698 -0.098772615 0.32993397 0.023277912 0.09867491 0.14943483 -0.24630535 -0.15073046 0.30561003 -0.2982585 -0.2389033 -0.31333816 0.22803381 -0.27227703 -0.2994896 0.17039259 -0.05230918 0.03905432 0.26180992 0.01429074 -0.16875924 -0.045672577 0.15310808 -0.21478933 -0.22527765 0.30082893 0.29519963 
gràd 0.29072568 -0.11609028 -0.27085772 0.23041527 -0.12506494 0.17926681 -0.25106254 -0.28478593 -0.21018104 -0.32836294 0.23828447 -0.12649332 -0.06646504 -0.37951392 -0.051883996 0.2769025 0.019547129 0.3282754 -0.29698214 -0.21856318 -0.15602055 -0.16332437 0.011567787 -0.08930061 0.21177644 -0.20827791 0.23738411 0.18795945 0.14710145 -0.009740038 -0.2960952 0.120818466 0.27951548 -0.26656377 -0.33574262 -0.41995397 -0.13148747 -0.21004733 0.24894789 -0.21660697 0.22981177 0.08031709 -0.20879139 -0.15258588 0.28264588 0.12807964 -0.22130336 -0.37604412 -0.16559358 -0.19347449 
Schwyzer 0.18629771 -0.13442941 -0.15035927 0.19331732 -0.17405018 0.23106828 -0.29057804 -0.17805487 -0.15948871 -0.2793529 0.24372625 -0.29673296 -0.121592246 -0.2128248 0.055344615 0.1529527 -0.14485595 0.28429168 -0.37267974 -0.20290925 -0.25168034 -0.19086166 0.027974164 -0.10062123 0.33142117 -0.22475554 0.23085912 0.22425975 0.14345346 -0.13308126 -0.21636237 0.26607642 0.34578162 -0.115015276 -0.24698459 -0.26162747 0.044890124 -0.24969655 0.23570397 -0.19854341 0.18719958 0.15020768 -0.26465616 -0.19880736 0.21303487 0.1737084 -0.28747356 -0.31737196 -0.24976349 -0.2512623 
Alsatia 0.21893783 -0.17366064 -0.15696585 0.1641495 -0.20791546 0.16829808 -0.13527586 -0.14112145 -0.29010433 -0.18120562 0.2761817 -0.123973876 -0.049422227 -0.23531328 -0.05753978 0.18692708 -0.05037571 0.12012042 -0.22352208 -0.24478072 -0.2160618 -0.14455765 0.043520156 -0.252594 0.34882486 -0.38487792 0.21194139 0.1622343 0.21826549 -0.06178547 -0.21307997 0.15870124 0.19657488 -0.2629855 -0.22276904 -0.24161682 -0.13462523 -0.15420994 0.20089336 -0.16347033 0.28707403 0.13555248 -0.32452142 -0.15515427 0.27149516 0.15924864 -0.2834409 -0.29000816 -0.27267924 -0.24530876 
Schwowe-Alemanne 0.23536147 -0.26025188 -0.012277229 0.15927345 -0.18659958 0.13274108 -0.18462214 -0.18085021 -0.16306874 -0.40203932 0.24789399 -0.17728762 -0.24233353 -0.2685768 -0.2998658 0.12683778 -0.16780096 -0.058577977 -0.16419424 -0.10018015 -0.22546382 -0.09584684 0.0638414 -0.18835257 0.2508828 -0.20449954 0.12909403 0.24328968 0.013492652 -0.1158224 -0.17646737 0.15200315 0.15606663 0.010417945 -0.04550078 -0.30349362 0.016489401 -0.2891132 0.1788691 -0.11191118 0.13802083 0.078591675 -0.19854178 -0.068325564 0.355613 0.0012909106 -0.14619507 -0.23486169 -0.28870553 -0.094480574 
Rund 0.11575942 -0.22866718 -0.13265163 0.15349048 -0.16039191 0.16421133 -0.29729253 -0.105454296 -0.2290967 -0.36303407 0.12220837 -0.20162238 -0.2547906 -0.21005128 -0.1864212 0.1716259 0.02768096 0.12669154 -0.33774838 -0.30345842 -0.33344865 -0.2138766 -0.052146837 0.07562572 0.36116883 -0.27396962 0.28360698 0.21836232 0.29202056 -0.08512549 -0.083044134 0.21424301 0.18708265 -0.27848583 -0.24813122 -0.2089098 0.05900753 -0.23041907 0.30345342 -0.18960351 0.21881382 0.25677967 -0.2622902 -0.2619564 0.1018947 0.13263929 -0.2888937 -0.34354785 -0.34473693 -0.1866082 
S 0.31339374 -0.3291075 -0.34453237 0.37188724 -0.27250525 0.23400393 -0.26811695 -0.32583624 -0.3064856 0.5319047 0.3520137 -0.3351601 -0.37696603 0.015520903 -0.4159368 0.27917507 -0.42013243 0.40933427 0.09509905 -0.26926303 -0.21062064 -0.23899716 0.33516237 0.41211864 0.12330855 0.08325117 -0.036987934 0.17254223 0.1595054 -0.45369413 -0.22765209 0.21931028 -0.42632574 -0.26721594 -0.30335748 0.39395782 -0.44379917 -0.3232346 0.29288742 -0.15056516 0.19279352 0.2733562 0.027259333 -0.2876626 0.017640939 0.31804144 -0.31719214 -0.30970725 -0.10879651 0.092793316 
44 0.13063181936740875 -0.2374209612607956 -0.18814069032669067 0.3422643840312958 -0.2118927240371704 0.22940422594547272 -0.24013370275497437 -0.23885378241539001 -0.21126121282577515 0.13183651864528656 0.13177278637886047 -0.22121964395046234 -0.2747180163860321 -0.2009917050600052 -0.13777151703834534 0.23488935828208923 -0.1406240016222 0.2775562107563019 -0.22097761929035187 -0.31200242042541504 -0.13355013728141785 -0.19954551756381989 0.18955522775650024 0.19090591371059418 0.21259960532188416 -0.10275491327047348 0.11671078205108643 0.1486368626356125 0.22292877733707428 -0.22760319709777832 -0.212316632270813 0.19031016528606415 -0.12438184022903442 -0.2639913856983185 -0.2255161702632904 0.23375654220581055 -0.1981648951768875 -0.1981167197227478 0.2412959486246109 -0.1734175980091095 0.21349632740020752 0.2751445472240448 -0.20949822664260864 -0.22907672822475433 0.20967984199523926 0.24993053078651428 -0.22204987704753876 -0.10240267217159271 -0.2416439652442932 -0.2292807698249817 
14 0.26280996 -0.27205762 -0.20669688 0.20368613 -0.16379376 0.13601053 -0.23045392 -0.35122988 -0.0737328 0.26300818 -0.012080915 -0.34716418 -0.2558202 -0.082022026 -0.20344709 0.10825401 -0.31256872 0.29851475 -0.1154002 -0.28800777 -0.006397473 -0.08256586 0.23678325 0.26580122 0.23889808 0.049164247 0.09627881 0.12390949 0.3131728 -0.20677583 -0.2066469 0.33074224 -0.19267327 -0.2482317 -0.16894044 0.2726281 -0.24376076 -0.2459406 0.29100797 -0.22082329 0.23447081 0.22439434 -0.28131515 -0.24904202 0.19040419 0.13191418 -0.1215962 -0.027872162 -0.20983864 -0.14289394 
mildi 0.21006308 -0.21660438 -0.16036172 0.1873283 -0.30296674 0.19567378 -0.095159166 -0.26236668 -0.18738021 0.1874618 0.25648177 -0.25177425 -0.21100956 -0.15741894 -0.27633938 0.24591741 -0.22134466 0.23798987 -0.29871762 -0.16723354 -0.24186102 -0.2078658 0.16882795 0.09499506 0.18429159 -0.18307488 0.18342559 0.1934034 0.16627441 -0.16428864 -0.30461767 0.16565374 -0.18624665 -0.28324327 -0.15400411 0.120183304 -0.1565627 -0.16355099 0.2773533 -0.24796481 0.20433508 0.2453487 -0.16614845 -0.24781539 0.2635897 0.2789473 -0.17575426 -0.13056745 -0.32070175 -0.28750172 
Gebäi 0.16276874 -0.10977504 -0.14516257 0.18683366 -0.18060018 0.24697584 -0.2971984 -0.27073923 -0.25318357 0.24472487 0.23773496 -0.27519947 -0.2203025 -0.14148767 -0.27630743 0.28154615 -0.17319831 0.21780103 -0.23065676 -0.22738954 -0.2792563 -0.19141825 0.21863401 0.090465166 0.31177348 -0.09578073 0.13820337 0.13820311 0.2078222 -0.2480369 -0.23926851 0.19455843 -0.36957344 -0.18138343 -0.21494208 0.22205277 -0.24574362 -0.16873598 0.21480241 -0.17477657 0.17888105 0.21841273 -0.107912876 -0.17257155 0.26447752 0.1547885 -0.2384284 -0.29126358 -0.1551286 -0.27245736 
42 0.08667006343603134 -0.24661937355995178 -0.20171724259853363 0.308796763420105 -0.20584887266159058 0.21015864610671997 -0.2259925901889801 -0.24734307825565338 -0.1747151017189026 0.12894026935100555 0.07496580481529236 -0.22577571868896484 -0.26424434781074524 -0.20175856351852417 -0.09414444118738174 0.2056041657924652 -0.1373436003923416 0.28568217158317566 -0.23856090009212494 -0.31174659729003906 -0.0761377215385437 -0.17438861727714539 0.15517443418502808 0.17555969953536987 0.19999070465564728 -0.12220154702663422 0.11014453321695328 0.12496235966682434 0.2131085842847824 -0.22101622819900513 -0.21204791963100433 0.20090651512145996 -0.09473134577274323 -0.2629465162754059 -0.18271154165267944 0.23824122548103333 -0.1706576943397522 -0.19642990827560425 0.22406695783138275 -0.199538454413414 0.21446163952350616 0.2526471018791199 -0.21889400482177734 -0.2118205577135086 0.214219868183136 0.24359051883220673 -0.18679052591323853 -0.052329838275909424 -0.2675986886024475 -0.24941378831863403 
Mit 0.20394334 -0.17723018 -0.2301792 0.1937292 -0.30885482 0.29285342 -0.21701114 -0.21699043 -0.19169243 -0.0870775 0.15386288 -0.18236846 -0.20310697 -0.28704867 0.044177096 0.2079706 -0.043495018 0.2773151 -0.17662077 -0.1579984 -0.29346138 -0.18950611 0.22119102 0.021738948 0.18380696 -0.23884903 0.28447482 0.25863272 0.19806638 -0.030739723 -0.13373964 0.3048597 0.050669946 -0.24361587 -0.17119011 -0.058705755 -0.14323168 -0.090242006 0.2888592 -0.2241279 0.32394877 0.14905378 -0.19970019 -0.25006384 0.25337708 0.2613796 -0.17657502 -0.26638767 -0.19057912 -0.17148998 
Zeidler 0.22936189 -0.26030877 -0.18144988 0.18173307 -0.1997832 0.083108775 -0.31600025 -0.25186887 -0.20272261 0.22191116 0.24344881 -0.17425542 -0.29300815 -0.24695474 -0.23350398 0.15916067 -0.30708137 0.2470751 -0.31580752 -0.12025 -0.1795579 -0.19200146 0.16131651 0.3211639 0.29087004 -0.22644089 0.28950483 0.17862763 0.24161369 -0.15122636 -0.13521156 0.17660743 -0.2770554 -0.15019189 -0.17097925 0.11143862 -0.15858111 -0.23172322 0.26052007 -0.24355671 0.19617175 0.24849752 -0.25196663 -0.17821342 0.108809926 0.23023795 -0.23723781 -0.3194875 -0.16386178 -0.30109262 
sich 0.29506597 -0.17447507 -0.25887823 0.053827856 -0.17195788 0.08691174 -0.22986723 -0.13624497 -0.087297335 -0.22546452 0.15092519 0.04994365 -0.17483754 -0.3019084 -0.052148484 0.20004 -0.059302267 0.2852461 -0.3511157 -0.22978392 -0.2457079 -0.2025106 -0.07452883 -0.06974357 0.13979974 -0.34753785 0.2576297 0.26944238 0.2154438 -0.24825661 -0.23232351 0.009640724 0.0047514173 -0.19036491 -0.13470802 -0.16610892 0.018552786 -0.11146182 0.22321568 -0.2524909 0.050810672 0.23092979 -0.17694043 0.06621643 0.33155382 0.2087748 -0.18729645 -0.18082072 -0.12170572 -0.26176295 
” 0.12126012 -0.19106527 -0.29434514 0.1736298 -0.14173138 0.09072873 -0.29455855 -0.1361705 -0.09207974 0.18405855 0.27767724 -0.27385792 -0.23289053 -0.14106774 -0.29661998 0.15251757 -0.25058284 0.2666522 -0.25438923 -0.12879024 -0.28080294 -0.18309951 0.16263074 0.18315512 0.2741318 -0.27136782 0.10796389 0.25624162 0.2618522 -0.14217347 -0.28332373 0.2941492 -0.2606287 -0.22555427 -0.24318421 0.15831845 -0.16160823 -0.23132809 0.30869713 -0.2050617 0.33851755 0.20946234 -0.28866124 -0.249075 0.08631892 0.22828262 -0.16674127 -0.19097419 -0.19603857 -0.25186294 
Populaires 0.1356824 -0.13901146 -0.29212165 0.20110288 -0.23036027 0.16449325 -0.090488195 -0.2602134 -0.2885632 -0.36206707 0.16017723 -0.081032835 -0.010985392 -0.32574078 0.06986903 0.1761955 -0.117873825 0.26768738 -0.26631287 -0.1456304 -0.2957064 -0.20315355 0.12503362 0.07004893 0.33571088 -0.25211427 0.17425184 0.36453518 0.2301828 -0.112270504 -0.2927203 0.06891534 0.24672367 -0.24860282 -0.027383775 -0.10168436 -0.13729216 -0.18639289 0.2833883 -0.29202345 0.22804745 0.27422962 -0.24938957 -0.106174126 0.36872926 0.24619599 -0.24013776 -0.2519295 -0.2705243 -0.2291824 
48 0.09917455911636353 -0.24843142926692963 -0.1978844702243805 0.3180525600910187 -0.20722642540931702 0.21657533943653107 -0.23055900633335114 -0.24473656713962555 -0.1859155148267746 0.13045614957809448 0.09094329178333282 -0.22850766777992249 -0.2672198712825775 -0.20171204209327698 -0.10965778678655624 0.21401694416999817 -0.1374954879283905 0.2840006351470947 -0.2339034378528595 -0.31056663393974304 -0.09222853183746338 -0.18091945350170135 0.16745832562446594 0.18027657270431519 0.20260930061340332 -0.11696182191371918 0.1110849678516388 0.1318178027868271 0.21745219826698303 -0.22429580986499786 -0.21168307960033417 0.19733181595802307 -0.10099469870328903 -0.26321396231651306 -0.19554805755615234 0.23962970077991486 -0.17732244729995728 -0.19735369086265564 0.2273993194103241 -0.19268256425857544 0.21555167436599731 0.25928935408592224 -0.21830254793167114 -0.2166173756122589 0.21068155765533447 0.24600756168365479 -0.19629836082458496 -0.06706935167312622 -0.2604522109031677 -0.2440682053565979 
gsesse 0.1462212 -0.16414854 -0.18885091 0.20227137 -0.33544376 0.2607692 -0.23465621 -0.16103283 -0.1575062 0.17184852 0.23950355 -0.15923947 -0.21429592 -0.26639807 -0.20636778 0.22191063 -0.34318882 0.25843176 -0.14657544 -0.17363733 -0.19254924 -0.21206062 0.16855665 0.15779896 0.11410297 -0.16648532 0.2109742 0.23458919 0.2610288 -0.27192372 -0.21826045 0.18849146 -0.22035456 -0.19250996 -0.15488899 0.17974246 -0.18844353 -0.31158155 0.18706128 -0.24256854 0.18167073 0.26201746 -0.175846 -0.10495782 0.16317543 0.1632471 -0.11637861 -0.2932023 -0.1611892 -0.23472331 
